svm_type c_svc
kernel_type linear
nr_class 3
total_sv 449
rho -0.0842801 0.164518 0.141509
label -1 0 1
nr_sv 151 135 163
SV
0.07973338478075373 0.1085460665188288 301:1 327:1 455:1 580:1 810:1 864:1 955:1 1210:1 1287:1 
0.09813037861042406 0.2828655194792797 199:1 246:1 260:1 273:1 314:1 357:1 437:1 478:1 859:1 
0 0.09639979373651274 28:1 171:1 261:1 308:1 404:1 408:1 512:1 796:1 912:1 1133:1 1194:1 1330:1 
0.2388886186524238 1 934:1 1133:1 1426:1 
0.06153827673920993 0.1307426880946009 64:1 107:1 266:1 439:1 448:1 629:1 1111:1 1138:1 1285:1 1419:1 1425:1 1454:1 
0.02068908803482215 0 39:1 40:1 128:1 207:1 230:1 262:1 378:1 381:1 433:1 638:1 907:1 1022:1 1359:1 
0.1927637033445985 0.2417272743265163 222:1 326:1 819:1 1142:1 
0.9155039087301684 1 776:1 
0 0.07094881277031614 485:1 732:1 776:1 
0.1432073733003413 0.1869098514225876 3:1 81:1 270:1 593:1 
0.07462592075492666 0.219069001489772 3:1 658:1 873:1 944:1 
0.3733721532820508 0.02523836184372166 207:1 570:1 609:1 808:1 855:1 1245:1 1274:1 1396:1 1501:1 
0 0.07638296360578288 26:1 199:1 262:1 922:1 956:1 1318:1 1416:1 
0.1478201765690614 0.4515316677414187 262:1 1430:1 
0.204240572954015 0.1638844536905127 188:1 229:1 300:1 310:1 355:1 412:1 693:1 936:1 1197:1 1397:1 
0.1446559370876448 0.1978022459703312 76:1 222:1 359:1 592:1 615:1 
1 0.6787290092466917 601:1 1229:1 1449:1 
0.2429408121321231 0.2910529885576086 62:1 561:1 822:1 1154:1 
0.5922309342047131 0.5663186483557791 28:1 121:1 178:1 273:1 1236:1 
0.3052175611886658 1 192:1 543:1 1343:1 
0 0.03855822574506953 543:1 761:1 762:1 859:1 940:1 1220:1 1343:1 1380:1 1388:1 1432:1 
0.1520488960336445 0.2609550277610954 257:1 428:1 522:1 680:1 944:1 970:1 1052:1 1114:1 
0.0470385603491786 0.01138598034906555 471:1 684:1 829:1 1016:1 1478:1 
0.1491724707198564 0 33:1 774:1 1003:1 1011:1 1016:1 1068:1 1478:1 
0.1613054112508651 0.09092611862558443 33:1 768:1 892:1 1073:1 1179:1 
0.09137307458132266 0.002642688067419363 39:1 157:1 199:1 651:1 705:1 726:1 729:1 1180:1 1368:1 1394:1 
0.1999757101212233 0.3396396018987839 150:1 187:1 871:1 1140:1 
0 0.08414323647559803 4:1 187:1 673:1 1036:1 
0.05983658052261547 0.1737170995527919 346:1 369:1 432:1 477:1 479:1 519:1 757:1 893:1 975:1 1125:1 1497:1 
0.1784702057153398 0.3544995497915056 861:1 986:1 1339:1 1388:1 
0.03388227699550037 0.378033998716599 4:1 528:1 549:1 673:1 749:1 1161:1 1294:1 1388:1 
0.09143177700003211 0.3548371690636057 238:1 984:1 998:1 1141:1 1388:1 
0.2464519838281151 0.3834386047051627 110:1 559:1 1388:1 1408:1 
0.1589659177608874 0.1595661387310978 193:1 692:1 700:1 785:1 
0.02864009605681155 0.03999222483484586 48:1 126:1 127:1 602:1 785:1 1020:1 1056:1 1110:1 1243:1 1314:1 
0.1139887861072179 0.2116656556650955 106:1 304:1 393:1 602:1 666:1 866:1 956:1 1342:1 
0.1017711100971813 0.1428070174939634 258:1 778:1 816:1 1005:1 1033:1 1162:1 1271:1 1281:1 1418:1 
0.3324007165230833 0.1035914771080432 500:1 616:1 717:1 1229:1 1449:1 
0.1071873613292874 0.05104284618209853 4:1 330:1 505:1 613:1 715:1 1229:1 1449:1 
0.1480960544180495 0.06899553821057268 1:1 165:1 219:1 319:1 524:1 1163:1 1204:1 1297:1 1471:1 1480:1 
0.2838226000694078 0.2642254101561841 21:1 308:1 720:1 732:1 790:1 914:1 1248:1 1472:1 
0.1092136031668287 0.02396849706921649 208:1 276:1 310:1 538:1 801:1 889:1 935:1 977:1 1007:1 1180:1 
0.2464798127553688 0.09880893099355323 283:1 334:1 348:1 668:1 1180:1 1206:1 
0.09667563669188171 0 7:1 290:1 368:1 434:1 720:1 1180:1 1409:1 
0.1014897625662821 0.1289236229578739 149:1 378:1 792:1 1240:1 1288:1 
0.278872131777974 0.2584644529728126 378:1 464:1 532:1 1046:1 
0.09019643459473803 0.0531786725598339 96:1 231:1 378:1 674:1 1080:1 1251:1 1288:1 
0.006639603716354322 0 366:1 378:1 399:1 613:1 995:1 1066:1 1160:1 1288:1 1394:1 1503:1 
0.4318164623007499 0.1982319175471948 378:1 1146:1 1234:1 1485:1 
0.9155098048453749 1 135:1 
0.02640685712052224 0 357:1 524:1 581:1 940:1 953:1 1122:1 1238:1 
1 1 953:1 
0.6492363038761191 0.2749422141415667 86:1 953:1 
1 1 953:1 
0.05856844408651656 0 4:1 331:1 457:1 528:1 535:1 579:1 584:1 647:1 966:1 
0.2740405031958803 0.09346382380787768 252:1 375:1 415:1 596:1 722:1 905:1 999:1 1050:1 1286:1 
0.7313997585764054 0.298872094373394 245:1 1134:1 1286:1 
0.731558424477871 0.2986583621720921 89:1 1265:1 1286:1 
0.4948867553917388 0.4167434488335147 273:1 363:1 527:1 906:1 947:1 
0 0.104797110962592 4:1 27:1 168:1 334:1 378:1 724:1 838:1 1065:1 1112:1 1240:1 1288:1 1315:1 1382:1 
0.1607426701487668 0.074255782930682 378:1 525:1 708:1 711:1 1288:1 
0.06996440471110549 0 173:1 371:1 378:1 986:1 1146:1 1288:1 
0.02260484705592156 0.05736033421936142 325:1 347:1 378:1 408:1 430:1 608:1 625:1 995:1 1288:1 
0.1350663380291853 0.3245782886573627 60:1 515:1 537:1 701:1 1069:1 1356:1 1410:1 
0.2557281684096845 0.1081206374351522 52:1 102:1 457:1 672:1 772:1 1130:1 1466:1 
0.2152296965634313 0.1797871264917144 52:1 263:1 457:1 496:1 701:1 878:1 979:1 1111:1 1246:1 1320:1 1466:1 
0.3782302355929071 0.4465325737157098 219:1 737:1 
0.6060018735319138 0.3539164240568385 720:1 1094:1 
0.03242600954964007 0.1775263677141232 64:1 479:1 639:1 939:1 1105:1 
0.3942477108418753 0.3882543640663897 435:1 682:1 1086:1 
0.1632805549308492 0.2086701376319062 425:1 448:1 584:1 662:1 1024:1 
0.1816872844773606 0.1656294662482057 507:1 1100:1 1138:1 1255:1 
0.9154702664786496 1 337:1 
0.01088084767444459 0 139:1 219:1 422:1 448:1 466:1 1234:1 1421:1 
0.08788369058142916 0.581659876256797 855:1 1046:1 1399:1 
0.5397610400780367 0.4765893728298606 488:1 853:1 1111:1 1257:1 
0.04520441231363564 0.003916467444649747 102:1 288:1 500:1 906:1 932:1 1011:1 1275:1 1390:1 1396:1 1449:1 1506:1 
0 0.146112130537339 262:1 692:1 1231:1 
0.1983395278478483 0.1880317112206339 233:1 270:1 457:1 465:1 512:1 719:1 900:1 955:1 1133:1 
0.2968117643953411 1 942:1 1085:1 1133:1 
0.1921509338248857 0.5820605448066558 506:1 575:1 1049:1 1453:1 1494:1 
0.3221106757522521 0.8832774135472351 3:1 22:1 308:1 
0.316753421335079 0.1525321058493585 160:1 570:1 877:1 1053:1 1104:1 1479:1 1501:1 
0.7652189538544112 0.5765972213788445 308:1 570:1 631:1 650:1 1501:1 
0.5994629214868352 0 262:1 1453:1 
0 0.1830433147544446 274:1 296:1 310:1 337:1 936:1 1384:1 1397:1 1432:1 
0.09766868988559785 0.126338664519838 59:1 255:1 270:1 355:1 357:1 467:1 693:1 694:1 936:1 1311:1 1397:1 
0.3939302722960562 0.4024840789641034 53:1 860:1 
0 0.1188291592597468 53:1 137:1 143:1 250:1 309:1 1282:1 
0.5951505252487327 0.339458921393007 727:1 1229:1 1449:1 1488:1 
0.1984211288132687 0.2165101829487565 8:1 30:1 251:1 991:1 1229:1 1298:1 1449:1 1461:1 
0.5951304885171387 0.3602540226902887 462:1 1006:1 1229:1 1449:1 
0.160789835855158 0.2491998722688502 82:1 221:1 473:1 673:1 679:1 709:1 980:1 1111:1 
0.4791614922920621 0.4322825365916609 273:1 720:1 1310:1 1486:1 
0.1896950941767077 0.2592247287880706 824:1 1079:1 1307:1 1317:1 1363:1 1402:1 
0.1411156810475358 0.2920008411954854 453:1 1016:1 1478:1 
0.02357868902207256 0 140:1 340:1 781:1 868:1 1016:1 1309:1 1382:1 1478:1 
0.02619451863920525 0.261912642283615 699:1 956:1 1016:1 1445:1 1478:1 
0.2044128155739682 0.2255404702630179 13:1 47:1 557:1 826:1 1254:1 
0.4970155473574279 0.3001100911505604 33:1 768:1 1504:1 
0 0.08219141548364756 96:1 153:1 290:1 465:1 666:1 768:1 1261:1 1510:1 
0.001347944186701789 0.08701635264684365 146:1 187:1 613:1 835:1 986:1 1159:1 1305:1 
0.114327470977275 0.1251567871384223 2:1 49:1 177:1 187:1 1256:1 1304:1 1400:1 
0 0.4143244687976197 219:1 271:1 621:1 1296:1 1388:1 
0.01318589433447802 0.0276863011920809 235:1 312:1 414:1 707:1 752:1 785:1 892:1 1074:1 1221:1 1297:1 1420:1 1435:1 
0.2382455745976478 0.3123530791594723 567:1 785:1 971:1 
0.4984840000111396 0.4976723410246901 68:1 129:1 308:1 867:1 916:1 1472:1 
0.8200853510249735 1 79:1 161:1 308:1 517:1 1128:1 1472:1 1502:1 
0.1484413729881455 0.03651889166170257 176:1 269:1 535:1 557:1 910:1 966:1 1180:1 
0 0.03882600378294244 262:1 341:1 510:1 520:1 654:1 750:1 1180:1 1205:1 1475:1 
0.1229588593574472 0.5444385197706975 574:1 961:1 
0.1819876007845535 0.07158655350534213 535:1 548:1 1017:1 1064:1 1180:1 1386:1 1443:1 1477:1 
0.1049653222274426 0.05358779272354953 127:1 249:1 408:1 613:1 780:1 1180:1 
0.2874778591682144 0.02618818643941236 250:1 911:1 928:1 937:1 1180:1 1282:1 1477:1 
0.1322220847893912 0.07722145446117422 158:1 264:1 344:1 444:1 509:1 1180:1 1469:1 
0.177513504393955 0.01136122003665588 198:1 457:1 1180:1 1316:1 1467:1 1495:1 1500:1 
0.6697678611781267 0 574:1 1180:1 
0.248927288629405 0.106019573166657 250:1 352:1 1180:1 1459:1 
0.2991373831032892 0.1198890649647068 378:1 475:1 897:1 985:1 1029:1 1103:1 
0.07440258286538329 0.01899307587433057 378:1 409:1 454:1 784:1 1000:1 1038:1 1288:1 
0.05891055575119834 0.02239175057850917 64:1 378:1 749:1 1262:1 1288:1 
0.5059104622534318 0.4065699233504343 479:1 800:1 
0.3717975762706016 0.09465057045148578 378:1 398:1 1288:1 
0.06742966958066463 0.05444165729956959 64:1 121:1 149:1 378:1 767:1 849:1 904:1 1234:1 1417:1 
0.2982582855675798 0 121:1 137:1 378:1 800:1 1288:1 
0.1401986800270143 0.08081122636647914 190:1 378:1 486:1 876:1 1032:1 1108:1 1394:1 1401:1 1490:1 
0.2644169614707589 0.1544565645978726 413:1 533:1 1143:1 1180:1 
0.2909744618275965 0 4:1 953:1 
0.1333499210363452 0.2971598894227135 4:1 618:1 1216:1 
0.7681683377646102 0.995381469504204 98:1 495:1 
0.7314520288681666 0.2987440562762131 1222:1 1286:1 1383:1 
0.02503322149427935 0 4:1 94:1 478:1 682:1 745:1 806:1 845:1 1286:1 1386:1 
0.3885669164850126 0.3715769439001479 209:1 350:1 416:1 507:1 957:1 
0.1275698607437363 0.2404864750937266 783:1 860:1 952:1 1171:1 1251:1 
0.1248496429142105 0.4350414106453001 195:1 437:1 482:1 624:1 940:1 943:1 1175:1 1301:1 1305:1 1437:1 
0.02195138631219325 0.1604477834433006 357:1 551:1 685:1 1103:1 1387:1 1435:1 
0.1831840311439507 0.2408225902613177 23:1 523:1 590:1 1207:1 1422:1 
0.4577843354953153 0.8194648345613879 1062:1 1377:1 
0 0.4027859393071475 98:1 492:1 546:1 1185:1 1282:1 
0.1479092342780871 0.2889134176017455 483:1 500:1 744:1 1269:1 1390:1 
0.08916093926670235 0.08064249526592615 448:1 712:1 1011:1 1185:1 1202:1 1224:1 1226:1 1486:1 1505:1 
0.2495180716678497 0.1866473032191011 194:1 408:1 539:1 551:1 1187:1 1267:1 1338:1 1347:1 
0.5921022576617507 0.512304549525975 589:1 1431:1 
0.1844686076790327 0.8661622673016075 437:1 589:1 1040:1 
0.05033653546442817 0.1627077113529741 74:1 461:1 514:1 589:1 600:1 824:1 1059:1 1116:1 1355:1 
0.2288655420984266 0.1663282013964897 492:1 796:1 1045:1 1215:1 
0.1460521003787243 0.2681106644869242 212:1 341:1 372:1 708:1 820:1 1302:1 1312:1 1400:1 1503:1 
0.2004626615693233 0 136:1 378:1 589:1 753:1 1176:1 
0 0.03775248829678069 4:1 400:1 577:1 588:1 589:1 627:1 683:1 
0.3217453597442991 0.2053713591633201 133:1 401:1 820:1 1403:1 
0 0.07526721381929374 500:1 556:1 574:1 624:1 820:1 879:1 1498:1 
-0.05079420589027395 0.2790745351149142 87:1 324:1 356:1 557:1 848:1 910:1 956:1 1202:1 
-0.1085371520493917 0.1858638700199806 138:1 196:1 267:1 318:1 656:1 862:1 
-0.2102003223000614 0.2828773613241838 131:1 560:1 1111:1 1124:1 1335:1 
-0.5358918826198213 0.1494275583365001 207:1 570:1 808:1 1501:1 
-0.4166166452361786 0.3771714599114419 376:1 570:1 1501:1 
-0.3081877865733104 0.1915010126108991 570:1 862:1 1501:1 
-0.8986441179573641 1 161:1 277:1 1502:1 
-0.01441838397769294 1 161:1 890:1 1277:1 1502:1 
-0.3185239020544381 0.5875305764395167 698:1 936:1 1060:1 1306:1 1397:1 
-0.2116461996228389 0.07817570597959433 886:1 1158:1 1229:1 1449:1 
-0.2112922251062393 0.07836494958763114 886:1 1041:1 1229:1 1449:1 
-0.1157556560361926 0.2254763953996143 215:1 273:1 291:1 319:1 597:1 644:1 645:1 812:1 821:1 887:1 942:1 1133:1 1437:1 
-1 0.9520423578311816 52:1 273:1 378:1 
-0.02330348670664333 0 72:1 273:1 405:1 487:1 557:1 690:1 735:1 924:1 
-0.1781580246134868 0.2066606938398937 55:1 119:1 480:1 646:1 701:1 1021:1 1206:1 1211:1 1226:1 1317:1 1441:1 
-0.124814160814721 0.1400952901434868 656:1 659:1 931:1 1087:1 1165:1 1235:1 1436:1 1480:1 1507:1 
-0.09569106783248561 0.0896887012032674 884:1 891:1 920:1 1023:1 1060:1 1230:1 1260:1 1412:1 
-0.02755810645011006 0.05695561189134683 92:1 104:1 226:1 690:1 740:1 
-0.02833164582149926 0 621:1 957:1 1149:1 1496:1 
-0.3614584690075932 0.3804408958903496 635:1 963:1 1157:1 
-0.1705264962325349 0.3754404542075179 319:1 875:1 1091:1 1163:1 1482:1 
-0.2061951053040876 0.1496424724892831 35:1 310:1 319:1 802:1 1163:1 1439:1 
-0.1560107925511819 0.03924852840985088 68:1 308:1 429:1 531:1 720:1 841:1 1009:1 1472:1 
-1 1 308:1 1472:1 
-0.057679201360838 0.6393166421126434 308:1 429:1 1348:1 1472:1 
-0.1322596523078127 0.2302617880484629 169:1 308:1 345:1 387:1 489:1 872:1 1009:1 1325:1 
-0.1074012305672408 0.444268302930941 308:1 1135:1 1203:1 1394:1 1472:1 
-0.1692306854999236 0 99:1 353:1 418:1 421:1 763:1 890:1 1180:1 
-0.4864941566320267 0.1233821825636818 322:1 378:1 754:1 800:1 832:1 844:1 1288:1 
-0.2111658735085697 0.1367466895185373 33:1 770:1 918:1 945:1 1433:1 
-0.151357840754695 0.1369851374682652 33:1 163:1 232:1 278:1 384:1 899:1 1153:1 1246:1 
-0.1010845193156834 0.1519697607788802 33:1 109:1 516:1 663:1 718:1 766:1 965:1 1113:1 1350:1 
-0.1206383818776596 0.07812808991770058 33:1 124:1 370:1 661:1 996:1 1077:1 1102:1 1326:1 
-0.3223519550281219 0 33:1 1106:1 1180:1 1391:1 1415:1 
-1 0.111899795547417 121:1 378:1 457:1 1180:1 1477:1 
-0.25644248136919 0.1216488614357858 549:1 611:1 708:1 953:1 1086:1 1451:1 1470:1 
-1 0.5387781981738139 953:1 1117:1 
-0.05312780638628221 0.2154345297266866 9:1 236:1 321:1 426:1 451:1 1395:1 
-0.1751843501484913 0.09865627598363851 426:1 886:1 938:1 1025:1 1236:1 
-0.09569942615678842 0.1572142017394197 200:1 321:1 426:1 541:1 925:1 1169:1 
-0.1772740779099105 0.0769630090280905 728:1 798:1 890:1 1173:1 1346:1 
-0.5192813656800463 0.09355381397632047 1146:1 1208:1 1286:1 
-0.5422205103845315 0.5708555154292506 156:1 1438:1 
-0.1788379856524147 0.06224250995497528 185:1 240:1 1286:1 1371:1 
-0.1342323517199737 0.1199782967195617 565:1 898:1 997:1 1286:1 1484:1 
-1 1 
-0.3067391071336462 0.06230916899945959 229:1 403:1 906:1 1286:1 
-0.1076658587533742 0.03728903438023157 633:1 840:1 982:1 1286:1 
-0.1094452522678819 1 68:1 469:1 1123:1 
-0.1175457235679886 0 787:1 1123:1 
-0.2648546998635706 0 78:1 1123:1 1453:1 
-0.1176445870953662 0 1123:1 1489:1 
-0.1209096979632407 0.1897935321145679 14:1 37:1 189:1 273:1 279:1 448:1 818:1 1218:1 1468:1 
-0.08786473914880545 0.1776284859223274 536:1 957:1 1227:1 1392:1 
-0 0.3180026831691312 95:1 121:1 802:1 957:1 
-0.06642610613952626 0.1330755407385846 181:1 957:1 969:1 1152:1 1217:1 1356:1 1393:1 
-0.1320658395967218 0.2664427288834911 599:1 957:1 1428:1 
-0.1319346080800315 0.2663554690354381 552:1 598:1 957:1 
-0.2826468433482155 0.9542077920558957 470:1 585:1 1385:1 
-0.08806470775030509 0.2594467483955832 17:1 141:1 151:1 351:1 441:1 874:1 927:1 974:1 1051:1 1463:1 
-0.02701088780567885 0.3660677005825225 121:1 125:1 130:1 145:1 151:1 202:1 354:1 641:1 960:1 1015:1 1058:1 1175:1 1282:1 1496:1 
-0.2711515940800683 0.3698999250108101 423:1 614:1 758:1 1071:1 
-0.03285125857904008 0.1023386109763286 38:1 360:1 530:1 686:1 740:1 1111:1 1120:1 1276:1 1292:1 1389:1 1398:1 
-0.2283296430079652 0.7873099280504512 58:1 218:1 372:1 740:1 
-0.1681083127226323 0.441653911178517 894:1 1111:1 1191:1 1241:1 1341:1 1352:1 
-0.3497308369722886 0.2549410647296915 270:1 652:1 905:1 1068:1 1111:1 1506:1 
-0.2875666977338644 0.4639908301371136 172:1 1449:1 1474:1 
-0.287654793362138 0.3473525870748235 460:1 1118:1 1449:1 
-0.4600912757650612 0.4486074212569952 488:1 1111:1 1323:1 1481:1 
-0.6413574674353139 0.857466070314943 687:1 719:1 
-0.1450763114146661 0.09034846218742383 121:1 233:1 311:1 498:1 501:1 765:1 949:1 954:1 1093:1 1180:1 
-0.1120147538881552 0.07834212599975804 570:1 691:1 808:1 1501:1 
-0.4165526912861376 0.3772769545958435 20:1 570:1 1501:1 
-1 1 1229:1 1449:1 
-0.779599805517512 0.2902838179595525 216:1 1229:1 1449:1 
-0.02999193265694202 0.000166471673082387 216:1 369:1 771:1 1229:1 1449:1 
-0.1806029889822216 0.2139586773740932 273:1 305:1 406:1 557:1 603:1 690:1 834:1 1133:1 
-0.1870614949531427 0.4895956919573822 273:1 690:1 839:1 
-0.187534269962582 0.1257776072346849 204:1 253:1 428:1 540:1 626:1 889:1 1114:1 1394:1 1497:1 
-0.07696837052971658 0.1330435114006653 329:1 481:1 572:1 740:1 851:1 978:1 1082:1 1172:1 
-0.1796240769193212 0.3103580772916091 182:1 740:1 880:1 1084:1 
-0.02864018352855381 0.5177885989808948 621:1 642:1 957:1 1496:1 
-0.271056414055706 0.5113570616129668 118:1 827:1 885:1 1214:1 
-0.2414124733949414 0.2384232894511311 155:1 242:1 250:1 469:1 760:1 803:1 861:1 
-0.2597998931410525 0.6296337229110212 98:1 308:1 653:1 1096:1 1472:1 1493:1 
-0.1414509871389841 0.4052910137557379 308:1 1075:1 1198:1 1251:1 1472:1 
-0.06493337869602793 0.4515848104490524 308:1 405:1 1042:1 1065:1 1251:1 1464:1 1472:1 
-0.1357215945868264 0.7725137739344701 308:1 721:1 1028:1 1472:1 
-0.5456289607713394 0.877406849092781 308:1 1018:1 1128:1 1472:1 
-1 0.4694878789161117 1180:1 1182:1 
-0.2159429992078806 0.06571684738376403 332:1 378:1 503:1 579:1 693:1 901:1 941:1 967:1 1239:1 1288:1 
-0.1407155052860734 0.09114328226056416 33:1 85:1 342:1 493:1 702:1 716:1 1448:1 
-0.2954538753120909 0.2530788220864171 630:1 910:1 1078:1 1366:1 
-0.5422322231517467 0.5705703646902602 649:1 1183:1 
-0.5472964726255274 0.5425729937888065 611:1 953:1 1473:1 
-0.4461599711323561 0.1187910254096156 73:1 356:1 953:1 1202:1 
-0.4502680874748922 0.1796877882067807 19:1 298:1 791:1 953:1 
-0.0850276151052117 0.05991970301745918 9:1 152:1 236:1 426:1 1460:1 1465:1 
-0.03758803959495617 0 426:1 587:1 690:1 1026:1 
-0.106217121023901 0.1016996395161195 426:1 550:1 755:1 915:1 951:1 1299:1 
-0.03010187292255436 0.07152493800817118 44:1 75:1 121:1 275:1 424:1 691:1 1109:1 1286:1 
-0.3792301729381344 0.228323836200633 466:1 564:1 596:1 1429:1 1453:1 
-1 1 1286:1 
-0.5227884187928947 0 1277:1 1286:1 
-0.1341790287757266 0.04672169509803753 623:1 882:1 1131:1 1164:1 1286:1 
-0.1071042948481815 0.03741541534077153 343:1 633:1 982:1 1286:1 
-0.1615151975089782 0.2522663740217813 50:1 84:1 123:1 151:1 452:1 1225:1 
-0.03544973086827097 0.01192845975928305 25:1 159:1 308:1 663:1 664:1 682:1 695:1 807:1 856:1 948:1 950:1 958:1 1123:1 1413:1 
-0 0.1149199596553322 469:1 472:1 733:1 888:1 889:1 1034:1 1055:1 1123:1 1253:1 1334:1 
-0.01472408666098574 0 17:1 576:1 1123:1 
-0.2318731945452636 0 49:1 1123:1 
-0.05864056927043282 0 562:1 869:1 1123:1 
-0.01667291710646257 0.03370556016135016 111:1 324:1 1123:1 1283:1 1372:1 
-0.2142059820672086 0.4167942756103681 273:1 491:1 586:1 833:1 
-0.1033031427500458 0.2084065185168807 239:1 273:1 487:1 919:1 1027:1 1139:1 1237:1 
-0.1606868699332088 0.312570685497113 210:1 259:1 273:1 573:1 723:1 
-0.2464410264603127 0.4330752213469633 736:1 797:1 992:1 1228:1 1269:1 
-0.5422194226360301 0.5706910723191848 870:1 1019:1 
-0.3611907047564051 0 495:1 528:1 906:1 957:1 1229:1 1321:1 
-0.09428982358348939 0.2351529719017926 46:1 624:1 637:1 734:1 957:1 1079:1 1195:1 1282:1 1496:1 
-0.2640486777794276 0.532709554941037 957:1 1259:1 
-0.01433483579965516 0.1164762653387727 148:1 228:1 799:1 957:1 1173:1 1219:1 1258:1 
-0.05617018734563211 0.1034595842767608 179:1 247:1 387:1 561:1 585:1 1147:1 1290:1 1385:1 1406:1 
-0.1241924225795376 0.2178862564442879 295:1 458:1 511:1 607:1 903:1 1385:1 
-1 0.6415509349669903 397:1 720:1 
-0.2609535336596804 0.1133544031338481 334:1 591:1 693:1 713:1 985:1 1255:1 
-0.2586539983293937 0.7526383147449526 521:1 667:1 1175:1 1367:1 
-0.1473851152006286 0.3268707998658422 408:1 528:1 917:1 1002:1 1136:1 1175:1 1440:1 
-0.1671319876164674 0.1677612902712957 142:1 539:1 794:1 1192:1 1347:1 
-0.3739220676079643 0.2514999547623371 110:1 539:1 1039:1 1347:1 
-0.06351479256158502 0.3927237485689644 122:1 303:1 407:1 477:1 553:1 664:1 850:1 
-0.5173923650000577 0.4028456296262942 583:1 820:1 836:1 
-0.5750746917315583 0.6945552323769504 1249:1 1449:1 
-0.3318223500179756 0.7423957787358607 303:1 850:1 985:1 
-0.7038711184257624 0.5349001810203582 589:1 1327:1 1333:1 
-0 -0.1071476049851851 41:1 202:1 402:1 1175:1 1357:1 1467:1 
-0.5534320065958142 -0.4088227437292212 337:1 719:1 1175:1 1442:1 
-0.1041718768318707 -0.1989739563417227 213:1 1175:1 1272:1 
-0 -0.5338118426866866 341:1 1175:1 
-0.445428723603613 -1 558:1 957:1 
-0.6918755500744765 -1 1328:1 1449:1 
-0.1484336749485987 -0 437:1 612:1 956:1 1220:1 
-0.05280760396589095 -0.1497715810471327 16:1 18:1 308:1 324:1 848:1 910:1 956:1 968:1 1200:1 1233:1 
-0.02806658113083777 -0.1641797970827842 173:1 273:1 1014:1 1264:1 1313:1 
-0.221494898632789 -0.1658501263615365 378:1 858:1 909:1 1133:1 1242:1 
-0.1497263712865995 -0 225:1 1133:1 
-0.315780022837216 -0.03866380719640468 639:1 812:1 1133:1 1337:1 1426:1 
-0.2927033064496182 -0.233106634474787 396:1 1062:1 1226:1 1457:1 1474:1 
-0.2293168943409268 -0.2000684952637307 52:1 98:1 186:1 228:1 749:1 1347:1 1423:1 1497:1 
-0.8358459006951214 -0.2028423369681397 463:1 
-0.3191055246354957 -0.2146679914988108 372:1 436:1 
-0.1770648969032221 -0.06672693811297882 209:1 499:1 506:1 575:1 610:1 804:1 836:1 1174:1 1345:1 1494:1 
-0.3807150666037377 -0.1096477237330531 63:1 506:1 575:1 1119:1 1240:1 1494:1 
-0.02143101232194294 -0.04112430075329115 77:1 265:1 417:1 437:1 648:1 656:1 1202:1 1213:1 1322:1 
-0.1483397009593223 -0.4344208045152854 1058:1 1111:1 1115:1 1270:1 1277:1 
-0.007408548349512234 -0 17:1 121:1 289:1 349:1 437:1 740:1 747:1 943:1 1220:1 1462:1 
-0 -0.0234322595601166 462:1 642:1 773:1 1004:1 1070:1 1103:1 1155:1 1279:1 1329:1 
-0.2741582763486723 -0.1405379226572593 79:1 90:1 699:1 1181:1 1344:1 
-1 -0.4291662150928405 3:1 5:1 
-0.2361463349357797 -0.5332712227114991 161:1 410:1 1502:1 
-0.2125766635342175 -0.3030821029919766 43:1 936:1 1397:1 
-0.1639592210641147 -0.1223294926209977 79:1 166:1 545:1 936:1 1397:1 1496:1 
-0.2292289412859858 -0.311361327031357 817:1 936:1 1397:1 
-0.120304442069687 -0.04272376812418879 547:1 558:1 886:1 930:1 1062:1 1173:1 1177:1 1229:1 1350:1 1449:1 
-1 -1 1170:1 1229:1 1449:1 
-0.417800725163449 -0.4293839446361177 203:1 281:1 
-0.2572229390404964 -0.1539748352967334 10:1 82:1 121:1 980:1 1111:1 1444:1 
-0.05485739147445477 -0.1682272394249036 36:1 273:1 377:1 741:1 927:1 1295:1 1492:1 
-0.1835373577432696 -0.3749559166316345 273:1 400:1 795:1 
-0.3467948938280314 -0.2499557002738249 273:1 420:1 673:1 830:1 
-0.3376447118303694 -0.3298619795910723 959:1 1350:1 
-0.05614560239375693 -0.01630421220202488 234:1 257:1 288:1 293:1 317:1 380:1 428:1 566:1 710:1 854:1 994:1 1114:1 1491:1 
-0.06218470846702546 -0.2311519435442749 288:1 306:1 494:1 740:1 777:1 1015:1 1446:1 
-0.8355925350317795 -0.8587321151237368 361:1 
-0.08795951867122818 -0 619:1 706:1 732:1 893:1 973:1 1046:1 
-0 -0.3997376148239264 7:1 642:1 957:1 1058:1 1434:1 1496:1 
-0.001222410386386601 -0.1111214319812709 118:1 205:1 746:1 811:1 827:1 1168:1 1184:1 1273:1 1362:1 
-0.09119036334703765 -0.2669511716404745 811:1 827:1 1340:1 
-0.2285664522761804 -0.1511740720715702 21:1 121:1 827:1 
-0.08228684993324245 -0 79:1 91:1 108:1 811:1 827:1 974:1 1362:1 
-1 -1 
-0 -0.1647334383411174 130:1 197:1 220:1 719:1 1031:1 1369:1 
-0.0273940610856538 -0.2282564873396496 130:1 1111:1 1189:1 1419:1 
-0.04306719199199753 -0.08337373992209884 45:1 701:1 734:1 759:1 894:1 944:1 1189:1 1190:1 1332:1 
-0.1380576576747841 -0 266:1 308:1 427:1 432:1 786:1 1413:1 
-0.1010886452586709 -0.1975044252087765 57:1 319:1 440:1 442:1 459:1 643:1 933:1 1009:1 1163:1 
-0.1721134182949193 -0.3931208058702239 308:1 469:1 563:1 1472:1 
-0.8272255853759827 -0 308:1 1324:1 
-0.5069829769259299 -0.8605351725064381 68:1 308:1 544:1 1472:1 
-0.1637826503340064 -0.2954045307231158 308:1 330:1 477:1 484:1 1269:1 1472:1 
-0 -0.8125181693511963 308:1 469:1 1464:1 1472:1 
-0.08093784512037852 -0.1358573777193676 308:1 664:1 921:1 1272:1 1472:1 1500:1 
-0.3829330974028095 -0.2662779942286262 4:1 66:1 378:1 534:1 631:1 846:1 1251:1 1252:1 1353:1 
-0.810553407051455 -0.2312042683978727 549:1 953:1 1296:1 1388:1 1407:1 
-0.4228599515436144 -0.5765006731962172 365:1 514:1 1286:1 1334:1 
-0.08511837239308892 -0.06803356125712522 224:1 273:1 291:1 424:1 437:1 732:1 1127:1 1214:1 1486:1 
-0.08220820417622196 -0.1874238454876404 273:1 474:1 671:1 1099:1 1360:1 
-0.1567260601630397 -0.159457859752451 154:1 282:1 392:1 701:1 957:1 1097:1 1285:1 1399:1 
-0.1096563727280425 -0.3259027338197358 103:1 585:1 732:1 895:1 1385:1 
-0.146917646373879 -0.3226922477279454 121:1 162:1 378:1 585:1 793:1 883:1 1364:1 1385:1 
-0.06275539316830329 -0.1970158140956357 31:1 585:1 703:1 814:1 913:1 1246:1 1385:1 1456:1 
-0.08379348486737354 -0.2216683663736019 17:1 236:1 595:1 622:1 634:1 874:1 1044:1 1051:1 
-0.1055392958294908 -0.1623574955127119 183:1 201:1 284:1 334:1 832:1 960:1 1175:1 1466:1 
-0.07261202228436951 -0.1872128336620093 34:1 217:1 617:1 636:1 740:1 1284:1 
-0.1685589425069445 -0.08715939831142648 180:1 437:1 1111:1 1282:1 1293:1 
-1 -0.8874533119767056 624:1 
-0.002317837897032864 -0.0402005417583939 175:1 294:1 302:1 389:1 449:1 450:1 1089:1 1175:1 1223:1 1509:1 
-0 -0.1011481520039694 316:1 324:1 356:1 612:1 666:1 956:1 1067:1 
-0.1131594503351472 -0 666:1 956:1 1067:1 1090:1 
-0.2240703481107926 -0.05426338495452688 408:1 956:1 1067:1 1090:1 
-0.2119270719294348 -0.1636120138151477 219:1 624:1 956:1 1060:1 1129:1 1225:1 
-0.015614849254458 -0.08463924536376403 87:1 206:1 297:1 946:1 956:1 983:1 1090:1 1107:1 
-0.1103707973258694 -0.08343225895884733 61:1 87:1 308:1 324:1 437:1 666:1 1103:1 1251:1 
-0.2399820345446555 -0.1812211309616578 287:1 419:1 597:1 720:1 769:1 1133:1 
-1 -0.7703335688468822 1133:1 
-0.3596715195786771 -0 357:1 837:1 1133:1 
-0.1236117530166835 -0.02015268851041252 268:1 1065:1 1085:1 1133:1 1156:1 
-0.06413242004251775 -0.07037412933006018 237:1 812:1 942:1 1013:1 1030:1 1133:1 
-0.4959862043983507 -0.0515910746418864 546:1 942:1 1126:1 1133:1 
-0.6198457458915757 -0.1797346471829676 991:1 1046:1 1085:1 1088:1 
-0.1005646727639677 -0.0597860493361172 15:1 97:1 680:1 843:1 1085:1 1088:1 1308:1 1386:1 
-0.07913527275842676 -0.150304732807921 227:1 313:1 607:1 987:1 1209:1 1282:1 1331:1 
-0.2579226062947313 -0 437:1 453:1 677:1 1464:1 
-0.3969046759021896 -0.2361724627792266 313:1 619:1 1305:1 
-0.1605065867481683 -0.2335320573709897 701:1 828:1 838:1 1111:1 1202:1 
-0.1208499996438895 -0.3707262861523508 151:1 167:1 740:1 1162:1 1186:1 
-0.06248277895235094 -0.1328964616803812 588:1 740:1 1107:1 1193:1 1250:1 1284:1 1487:1 
-0.4178599371710718 -0.3640955649461182 402:1 1155:1 
-0.07206634881879287 -0 29:1 90:1 330:1 514:1 519:1 568:1 1132:1 1181:1 1187:1 1453:1 
-0.1357836670222702 -0 90:1 437:1 
-0.553257254783835 -0.7916600465451332 521:1 570:1 578:1 824:1 1501:1 
-0.06346062636493438 -0.1892067814920443 161:1 308:1 620:1 1009:1 1502:1 
-0 -0.440163349034797 161:1 427:1 1502:1 
-1 -1 161:1 1502:1 
-0 -0.01894482692241187 450:1 739:1 749:1 936:1 1397:1 1496:1 
-0.01664389973791855 -0.008331616171928194 43:1 54:1 166:1 831:1 1013:1 1397:1 
-0.1049749020587472 -0.05860148156498413 121:1 632:1 936:1 1397:1 
-0.05732627112555345 -0.04271634320067317 285:1 445:1 529:1 936:1 1244:1 1397:1 
-0 -0.0568403185316582 191:1 450:1 828:1 1111:1 1220:1 1411:1 
-1 -1 273:1 
-0.06615444850650663 -0.0909182752452455 273:1 359:1 388:1 447:1 490:1 995:1 
-0.2171712051519256 -0.09310904477261021 173:1 184:1 280:1 427:1 925:1 1128:1 1212:1 
-0.1520676801226371 -0.02575198793692374 437:1 526:1 697:1 1311:1 1365:1 
-1 -1 98:1 
-0 -0.1404839720862049 463:1 529:1 656:1 730:1 1203:1 
-0.2302027964278935 -0.1238280188706866 147:1 437:1 656:1 
-0.9708499236277208 -0.3177049278990668 543:1 642:1 1343:1 
-0.4150707832204051 -0.3172496070326077 257:1 1076:1 1114:1 
-0 -0.04329472967157622 93:1 443:1 448:1 469:1 740:1 988:1 1350:1 1404:1 
-0.08442807843333813 -0.2141947456427697 186:1 488:1 670:1 740:1 747:1 875:1 1434:1 1482:1 
-0.2242056570844186 -0.1985712735439529 432:1 1334:1 
-0.490524221397288 -0.2861349156025414 187:1 468:1 628:1 
-0.1143624990730683 -0.09833517770592198 116:1 324:1 476:1 893:1 
-0.03014469481954287 -0 100:1 290:1 328:1 348:1 678:1 732:1 815:1 893:1 
-0.1499513976746364 -0.142744399906767 390:1 504:1 893:1 905:1 1361:1 
-0.1206075521102948 -0.3009785294443998 117:1 736:1 893:1 
-0.8497315536592198 -0.3137142381560845 1379:1 1388:1 
-0.2495126102716673 -0 286:1 341:1 749:1 1388:1 
-0.9405492723324085 -0.8588644877843776 1112:1 
-0.08517460872039122 -0.463490544060859 151:1 497:1 1191:1 1268:1 1449:1 
-0 -0.2969145879035666 121:1 463:1 675:1 957:1 1266:1 1496:1 
-0.04162009031695593 -0 243:1 284:1 437:1 462:1 827:1 1054:1 
-0.1247082031197718 -0.1954864063061523 21:1 827:1 1411:1 
-0.07010831703539622 -0.1146144498557555 11:1 130:1 149:1 244:1 1010:1 1098:1 1111:1 
-0.1950397208677003 -0.07681980832605544 64:1 130:1 244:1 852:1 1111:1 1419:1 
-0.2002470021064768 -0.03337438308464626 79:1 689:1 865:1 1189:1 1190:1 1378:1 
-0.08317593379923646 -0 45:1 197:1 220:1 290:1 665:1 1095:1 1376:1 
-0.5393768011076947 -0 341:1 437:1 
-0.1225195367628254 -0.1056026631482815 12:1 45:1 569:1 708:1 779:1 1151:1 1166:1 1370:1 
-0 -0.2185925997504728 310:1 319:1 463:1 1067:1 1163:1 
-0.2536449507042354 -0.2953706652780667 308:1 333:1 995:1 1472:1 
-0.1720043053499882 -0.3933644475998347 308:1 469:1 981:1 1472:1 
-0.2581022004371019 -0.3409791312884641 308:1 373:1 1414:1 1472:1 
-0.4653516227196756 -1 308:1 372:1 1472:1 
-0 -0.6819582625769282 308:1 1324:1 1472:1 
-0.2024820284154467 -0.2058065275947253 1012:1 1083:1 1282:1 1289:1 1447:1 
-0.5749390265445584 -0.667863325882731 896:1 953:1 1178:1 1473:1 
-0.8355925350317795 -0.8587085281026297 256:1 
-0.06590824027434 -0.2149835187583169 112:1 273:1 278:1 321:1 385:1 395:1 
-0.2019235471089809 -0.3746652542502765 70:1 273:1 525:1 
-0.08986513789314431 -0.2242239483923448 273:1 448:1 451:1 542:1 1226:1 1269:1 
-0.03947035848054383 -0.09908675029088056 6:1 437:1 513:1 590:1 725:1 749:1 756:1 805:1 957:1 1065:1 1196:1 
-0 -0.1846043816032323 321:1 372:1 585:1 693:1 825:1 1336:1 1385:1 
-0 -0.04284234964093597 54:1 585:1 624:1 775:1 826:1 1097:1 1197:1 1278:1 1385:1 1496:1 
-0.05241723907286883 -0.04630786715427514 17:1 21:1 117:1 874:1 1051:1 1280:1 1381:1 
-0.07453407570227005 -0.1690712174212185 80:1 186:1 335:1 446:1 614:1 993:1 1071:1 
-0.04019602404757034 -0.2648843443384574 197:1 209:1 438:1 890:1 974:1 1191:1 1341:1 1350:1 
-0.07130460026379409 -0.05220335072167129 358:1 551:1 594:1 708:1 798:1 990:1 1001:1 1047:1 1092:1 1149:1 1175:1 1201:1 1349:1 
-0.1445894923116511 -0.2668737507225805 842:1 1150:1 1175:1 
-0.1899509780950514 -0.1350067483729167 497:1 1111:1 1263:1 1409:1 
-0.09935615297485649 -0.3440484784489876 303:1 339:1 408:1 549:1 553:1 664:1 850:1 935:1 1095:1 1128:1 
-0.04938869271912379 -0.2927560717860415 303:1 696:1 850:1 1212:1 1424:1 1484:1 
-0.06159117087882026 -0.09661988082673098 32:1 88:1 134:1 263:1 303:1 308:1 362:1 688:1 850:1 857:1 1062:1 1277:1 1282:1 1300:1 1447:1 
-0 -0.0319946509518786 67:1 288:1 303:1 364:1 372:1 809:1 850:1 1065:1 1199:1 1464:1 
-0 -0.2269983777609152 83:1 121:1 303:1 367:1 437:1 721:1 850:1 1048:1 
-0.2686157795334332 -0.0961710987857957 450:1 528:1 571:1 589:1 701:1 964:1 1141:1 1148:1 1450:1 
-0.2129093248320501 -0.1016236923889743 589:1 701:1 736:1 764:1 789:1 1269:1 1373:1 
-0.445453430650652 -0.2656857072348716 328:1 391:1 589:1 1356:1 1483:1 
