svm_type c_svc
kernel_type linear
nr_class 4
total_sv 6115
rho 0.925084 0.331842 1.0002 -0.77757 0.274835 0.999567
label -1 0 1 2
nr_sv 656 2180 1211 2068
SV
1 1 1 3094:1 13256:1 13703:1 
1 1 1 2737:1 
1 1 1 1525:1 1590:1 1979:1 5731:1 10258:1 13827:1 
0.5537067398099859 0.5484116891212117 0.2884484695400326 1175:1 2523:1 12198:1 13402:1 14133:1 
1 0.9686902002942047 1 1979:1 12985:1 13703:1 
1 0.9473124343676117 1 1979:1 12985:1 13703:1 
0.8773766337248171 1 0.5086817387184654 8259:1 10429:1 10987:1 12072:1 12212:1 13827:1 
0 0 0.0386465041047916 1124:1 1804:1 3028:1 3820:1 4249:1 5547:1 5553:1 8404:1 10743:1 11602:1 13289:1 13703:1 14187:1 14306:1 
1 0.986931145807426 1 1923:1 2631:1 3446:1 7235:1 
1 1 1 3446:1 3836:1 7235:1 
1 1 1 3446:1 7235:1 
0.5070415788791378 0.88503860274881 0.7448723386994966 3446:1 5068:1 7235:1 14187:1 
0 0 0.5032438948858795 1127:1 1884:1 2181:1 3446:1 4479:1 4684:1 7235:1 8438:1 8453:1 
1 0.7681205625148457 1 1494:1 3446:1 7235:1 11602:1 
1 1 0.3627348665202797 665:1 4711:1 6423:1 8422:1 10451:1 13827:1 
0.2560686517098256 0.3960145761846227 0.01638181466612122 324:1 2829:1 3792:1 4214:1 4880:1 9478:1 9686:1 13827:1 
1 1 1 5229:1 8811:1 11473:1 13827:1 
0.1602883128593739 1 0.7687085632029945 345:1 6466:1 10258:1 11473:1 13827:1 
0.9381540840790322 0 0 2940:1 6855:1 12883:1 13827:1 
0.6785019366481732 0.5460160794557353 0.8314635596689116 1088:1 5114:1 13449:1 13827:1 
1 1 0.8648495969359431 5731:1 13827:1 13915:1 14510:1 
1 1 1 13827:1 
1 1 1 13827:1 
0.1376323201695544 0.5367732761133925 0.1884387655895856 1554:1 1669:1 4659:1 5949:1 7404:1 9894:1 12531:1 13827:1 
1 0.7534841247200122 1 2233:1 8637:1 13827:1 
1 1 1 3771:1 13827:1 
0.3631666919296748 0.07887727078200922 0.237776479011726 476:1 2409:1 3792:1 5356:1 6367:1 8451:1 12829:1 13827:1 
1 1 1 477:1 11727:1 13827:1 
0 0.3311802994028663 0.4578305842218466 1387:1 3185:1 4826:1 6506:1 13827:1 
1 0.629610069409803 1 7199:1 10429:1 11022:1 12072:1 13827:1 
0.05798582113014158 0 0 1475:1 7281:1 9390:1 12928:1 13827:1 
1 0.1722861422810872 0.9629271261817425 4259:1 12928:1 13827:1 
0.9574547860724819 1 0.5797633900896403 4551:1 11918:1 13567:1 13827:1 14187:1 
0.8751817422168553 0.2897266862425574 0.1770646617363817 2121:1 5420:1 6085:1 8274:1 8978:1 13827:1 13829:1 13948:1 
0.1802140909972778 0 0 261:1 308:1 468:1 1251:1 3765:1 4909:1 
0 0 0.0009512136981786018 261:1 308:1 468:1 3765:1 4909:1 
1 1 1 124:1 8827:1 12865:1 13703:1 
1 1 1 3446:1 3964:1 4711:1 7235:1 7537:1 10288:1 10867:1 11977:1 
1 0.2438333932008034 0 734:1 6006:1 8839:1 8952:1 9119:1 11977:1 13827:1 
0.6135306487476269 0.4233391864842622 0.6724845362027028 2327:1 3912:1 11022:1 12331:1 
1 1 1 9270:1 11918:1 
1 1 1 3446:1 
1 0.8671503509939047 0.7399407667655158 231:1 834:1 2187:1 6004:1 9978:1 
1 0.8913484282232812 0.2556074342606577 834:1 982:1 3433:1 8915:1 9473:1 13703:1 14531:1 
0.9542106591948383 0.4762905387105587 0.4965114760906983 477:1 834:1 5427:1 6186:1 8417:1 11046:1 13703:1 
1 0.7815141134435015 0.2342980387362763 834:1 3446:1 4815:1 6466:1 10689:1 11850:1 12996:1 13507:1 13649:1 
1 1 0.884394426849235 768:1 834:1 4603:1 13644:1 
0 0 0.4476395457313079 6855:1 12883:1 13827:1 
0.6464398086988641 0.2186422787344109 0 2940:1 6855:1 11473:1 12883:1 13827:1 
1 1 1 2706:1 9415:1 13827:1 
0.8446105606444411 0 0 834:1 3104:1 3446:1 6956:1 8154:1 8492:1 10823:1 14434:1 
1 1 1 5396:1 
0.413868760758233 0.5838086156360903 0.03321877783775033 1175:1 5748:1 5822:1 8250:1 9182:1 11794:1 11877:1 14492:1 14531:1 
0.4216086995894461 0 0 3279:1 7362:1 7869:1 8250:1 10429:1 12890:1 13268:1 13327:1 13717:1 
1 0.6162435359554076 0.9997313177110745 4758:1 10374:1 13703:1 
0.7265806061363943 0.2363733509617032 0.7339978462947893 77:1 1795:1 8901:1 10123:1 11948:1 13703:1 
0.6447849751360123 0.333361652726971 0.5105130240615797 740:1 2882:1 4855:1 11719:1 13703:1 
1 1 0.1616279914285509 8396:1 10951:1 13703:1 
0.4318572319911 0.3665931621953518 0.3641185817994505 1979:1 6471:1 6977:1 7291:1 7465:1 12176:1 13703:1 
0.04762840190783613 0 0.5670197657122827 550:1 5184:1 13256:1 13703:1 14133:1 
1 0 0.06799241037865431 3446:1 6338:1 12251:1 13028:1 13703:1 
1 0.9257698933385435 1 3446:1 6338:1 12251:1 13028:1 13703:1 
0 0 0.4810450794841102 550:1 5317:1 6192:1 13703:1 
0.1522487410435538 0 0.01542584449932615 105:1 1979:1 3098:1 4734:1 8899:1 12322:1 13703:1 
0.8351115770224269 0 0.6515540851255237 834:1 3446:1 4852:1 5318:1 9182:1 9579:1 13703:1 
0 0.03331123387717574 0 4753:1 5200:1 8103:1 8332:1 8892:1 12474:1 13703:1 14160:1 14380:1 
0.8450666202997078 0.5164981727779332 0.02238943922965542 1357:1 2500:1 3771:1 12360:1 13427:1 13703:1 
1 0.7027620255364295 1 4787:1 8154:1 13256:1 13437:1 13483:1 13703:1 
1 0.4284467004740331 0.7729325862110449 2994:1 6143:1 11793:1 13703:1 
0.2014151384117952 0.1811399995530322 0.06848112596316883 4986:1 5235:1 5546:1 6103:1 8740:1 11007:1 11043:1 13703:1 
0.6098737256621592 0.4974315017135406 0.3961594650330607 8171:1 8792:1 9105:1 10127:1 13703:1 13813:1 14531:1 
1 1 1 477:1 845:1 6550:1 13205:1 13703:1 
0.6060358433384515 0 0.3879363424888251 1979:1 4961:1 9350:1 12014:1 13571:1 13703:1 
1 1 1 8274:1 12651:1 13703:1 
0.8054898414989341 1 0.2537378028544292 1884:1 2151:1 2691:1 5184:1 6037:1 6704:1 10710:1 11263:1 13256:1 13703:1 
1 0.7105611803396449 1 7530:1 11410:1 13571:1 13703:1 
1 1 1 477:1 12639:1 
1 0.2750655525329786 0.5095721331141659 1979:1 3446:1 3745:1 12007:1 14586:1 
0.6841496301002234 0.1244581056285891 1 4509:1 6592:1 10273:1 10728:1 13508:1 13703:1 
1 0 1 4384:1 11262:1 13827:1 14531:1 
1 1 0.6987017334053155 1979:1 4384:1 11262:1 13827:1 14531:1 
1 1 1 834:1 7235:1 8154:1 9808:1 
0.7367820789482021 0.3899692903447411 0.7775144543169547 1015:1 3593:1 4183:1 6804:1 11473:1 14165:1 
1 0 0 2940:1 5188:1 8555:1 10046:1 
1 0.9175752613191974 1 476:1 13427:1 13703:1 
0.3813261747176097 0.005894148183432722 0.3293051789414196 1430:1 5799:1 6885:1 7391:1 9838:1 12459:1 13427:1 13703:1 
1 0.00299881966616917 0.133497766432976 5367:1 12360:1 13352:1 13427:1 13703:1 
1 1 1 11929:1 13427:1 13703:1 
1 0.6164154578737762 1 10271:1 11974:1 13703:1 
0.264880624637268 0.4695328057918766 1 2164:1 3912:1 5979:1 6506:1 11920:1 13949:1 
1 0.2097852718399869 0.3475850194275995 3850:1 4479:1 7076:1 
0.6873210267542148 0.1117659625640163 0.1897932953715784 1029:1 4680:1 7076:1 9217:1 9222:1 
1 0.9389571805807997 0.789544295790558 5229:1 7076:1 10958:1 13829:1 14042:1 
1 0.4629859030552602 0.7462410070483235 3384:1 7076:1 12350:1 14533:1 
1 0.2290149309322817 0 4479:1 7076:1 10203:1 
0.1682014025012032 0.06006029231120477 0.05704333884673166 1958:1 2114:1 2859:1 5578:1 7076:1 7326:1 7910:1 8161:1 8234:1 11979:1 12401:1 
1 0.5225081703012844 0.3174596296154241 293:1 4881:1 7076:1 7500:1 12842:1 
1 1 1 7076:1 
1 0.5033626601966388 0.7310066168457247 5187:1 7076:1 8627:1 12401:1 
0.6665594670509445 0.4706657477880775 0.6623071415083567 830:1 7076:1 8884:1 12760:1 13774:1 
0.7657804968403915 0.4896429850011964 0.19057280201594 1999:1 6670:1 7076:1 7580:1 
1 0.1923768875172942 0.1829496268635303 5188:1 5747:1 7076:1 9222:1 
1 1 1 7076:1 12838:1 
1 1 1 7076:1 9350:1 
1 1 1 
0.7389840205565862 0.5119461575759001 0.2542792002236545 519:1 3237:1 8962:1 12651:1 13059:1 13703:1 
1 1 1 
0.3599826882896704 0.3098676559788762 0.2397406505029131 308:1 1078:1 1421:1 5362:1 6544:1 6842:1 8700:1 11305:1 12579:1 12633:1 13703:1 
0.971770400767807 0.376430210079029 0.9384143087357343 7520:1 7886:1 13703:1 
0 0.1994453156912682 0.1317326489264129 7994:1 10267:1 12198:1 13703:1 
0.3892628696145652 0.9132337417451117 0 5041:1 9978:1 13035:1 13703:1 
1 1 0.7609633285253721 5041:1 9978:1 13035:1 13703:1 
0.3771466341761109 0 0 631:1 5819:1 5981:1 7732:1 8250:1 8618:1 13231:1 13276:1 
0.3750995975887964 0 0 873:1 11977:1 13545:1 
0 0.7676172211082614 0.1358326119525681 1938:1 4826:1 5019:1 5427:1 6006:1 8161:1 
0.3946755032346683 0.1895693448617116 0.2659846417710946 1256:1 4310:1 4760:1 7932:1 13560:1 
1 0.5393556107758433 0 2187:1 2940:1 5427:1 11133:1 11476:1 11977:1 
0 0.1339098049825605 0 73:1 1820:1 3745:1 5358:1 7277:1 9707:1 10951:1 13256:1 13703:1 
0 0.02241491965395205 0 261:1 324:1 4344:1 10958:1 12251:1 13827:1 14565:1 
0.231279241008252 0.4563483124592271 0.246488665325565 4050:1 4142:1 4344:1 4519:1 5427:1 8404:1 9799:1 14454:1 
0.3315126207308746 0.5016523188920311 0.3767394048173597 650:1 856:1 1810:1 3873:1 10145:1 11201:1 13620:1 13827:1 
0.3117867444242354 0.07386509192187687 0.5779902876302692 140:1 1554:1 2701:1 5495:1 6642:1 8006:1 
0.2115984269925849 0 0.05910807305534057 1878:1 5785:1 5788:1 8250:1 8274:1 8865:1 9171:1 
0.88036193051931 0.2663752759291225 0.1305238893015171 1785:1 5754:1 6367:1 7877:1 8154:1 8250:1 8740:1 11764:1 12028:1 
1 0.7498774151474193 1 2698:1 3446:1 7060:1 10429:1 13827:1 
0.2038849809558469 0.1777943925246632 0.2832318067025676 3875:1 9614:1 9665:1 10586:1 11226:1 11977:1 
0.4211080800202097 0 0.3495312808891448 550:1 2230:1 4507:1 5427:1 13338:1 
1 0.7827762868932467 1 631:1 1173:1 5981:1 10699:1 
0 0.02115054355365576 0 1173:1 7683:1 8588:1 8681:1 10429:1 13268:1 
0.4449318558445642 0.1697156673618384 0.1591592993786423 855:1 2829:1 3770:1 5874:1 7880:1 11100:1 11977:1 14111:1 14509:1 
1 1 1 3391:1 
1 1 1 14531:1 
0.4733784894964194 0.9206345089382355 0.2900079208847037 2:1 2187:1 3484:1 5676:1 9206:1 9978:1 12149:1 
0.1393538972795134 0.09774001103920781 0 2829:1 2914:1 5848:1 6794:1 7291:1 9275:1 9478:1 12010:1 13053:1 13520:1 
1 0 0.1056107473926413 8154:1 10586:1 13790:1 
0 0 0.397039290768308 3792:1 7404:1 8154:1 12176:1 12814:1 12839:1 
0.09936480894450984 0 0 6054:1 6201:1 7869:1 7926:1 8915:1 9274:1 9649:1 13703:1 
1 1 1 11140:1 11977:1 
1 1 1 531:1 4562:1 
1 0.003299829038199728 0.4616205468886402 2589:1 3036:1 6704:1 10699:1 
0.520343300282282 0.9990724262309004 0.3633584296602644 856:1 7777:1 12176:1 12651:1 13827:1 
0.3864324830585096 0 0 1955:1 2716:1 2940:1 4424:1 5272:1 5763:1 8250:1 8618:1 8916:1 
1 1 1 2940:1 
0.4134234562706599 0.1151771010437758 0 1955:1 3773:1 4260:1 5819:1 6006:1 13184:1 14347:1 
1 1 0.5781947009978435 5103:1 6885:1 9518:1 13054:1 13458:1 
1 1 1 4344:1 4668:1 10699:1 13827:1 
0.4333369285407256 0.2356973570600336 0.1920881697977624 848:1 1500:1 1795:1 3177:1 6423:1 7820:1 11977:1 13412:1 
1 1 0.7482052818409285 2940:1 11977:1 12073:1 
1 0.6633568447691276 1 8404:1 14586:1 
0.5130476651044337 0.447673207645106 1 6674:1 9613:1 10867:1 
0.07189400775523529 0.2998326723716398 0 4093:1 5229:1 7291:1 8250:1 8811:1 11762:1 11861:1 12251:1 
0.5979760189803156 0.2723114721850394 0.2435081593928901 940:1 7636:1 8250:1 11977:1 12107:1 
0.3931146635793437 0.111086857522551 0.04453870538420695 635:1 1974:1 3502:1 3723:1 4882:1 8227:1 8729:1 10699:1 11806:1 11977:1 
0.4136605629001761 0.45429282598827 0.3460966498386875 204:1 6223:1 8643:1 9982:1 10304:1 12066:1 13520:1 14467:1 
0.7258210879221881 0.6893492577907157 0.6144658550276588 6788:1 7051:1 7979:1 
0.1444773984676146 0.09274661031984982 0.002009555332373972 758:1 2843:1 6353:1 7520:1 9665:1 10745:1 10757:1 
0 0.2533149337945262 0.05505608177440159 677:1 1968:1 2136:1 2187:1 3711:1 8423:1 13545:1 13827:1 
0.1151248359527672 0.5351584254662147 0 125:1 4934:1 5981:1 7724:1 8250:1 8749:1 8859:1 9850:1 12328:1 
0.2153845534781349 0.3045812134851636 0 873:1 1734:1 1898:1 2396:1 5188:1 5539:1 6006:1 12328:1 
0.3730859513702395 0.1743896348600659 0.03107085476152591 137:1 564:1 1880:1 6397:1 8250:1 9965:1 
0.6481010894584908 0 0.2105565876368348 2940:1 3964:1 8295:1 12735:1 
0.235302728993285 0.2443190751247015 0.2953711230951963 3588:1 7572:1 8250:1 10429:1 12295:1 
0.1347608056993546 0.2485103196788319 0 1403:1 1669:1 2282:1 3605:1 6446:1 7965:1 9877:1 12839:1 12883:1 14266:1 
0.1389857977033066 0.1160935340460739 0 7060:1 7311:1 8250:1 8925:1 9102:1 10536:1 12176:1 12189:1 12651:1 13268:1 
0.3673425908776838 0 0.1080144857222142 2706:1 2940:1 3964:1 4582:1 6653:1 9902:1 12284:1 
1 1 1 12928:1 13827:1 
1 1 1 11977:1 13827:1 13886:1 
1 1 1 5242:1 10830:1 13829:1 
1 0.9147890053568513 0.4747101967539568 2862:1 4344:1 5427:1 6009:1 6756:1 11607:1 13827:1 14546:1 
0 0.02459593945918718 0.02057389171276161 1779:1 5822:1 6935:1 8031:1 9182:1 9684:1 
1 1 1 3368:1 11633:1 
0 0 1 2281:1 5285:1 
0.9718898305497528 0.3212015195702685 1 1554:1 6674:1 11977:1 
1 0.7213371638523894 1 2038:1 2176:1 
0.2833426876913804 0.2298981112707372 0.1923468819704244 631:1 1955:1 5193:1 5714:1 5981:1 10167:1 11298:1 
0.09330783531233028 0.284022472428047 0 2075:1 2910:1 5005:1 6006:1 8154:1 10867:1 12391:1 
0.8246909398705795 0.6481232641955236 0.6803410004822693 2994:1 7930:1 12735:1 14265:1 
0.824614102941243 0.4928680736904686 0.616113429964904 1925:1 3177:1 5031:1 12833:1 13385:1 13912:1 
0.7693754163488283 0.235187047878496 0.03730403177178494 2940:1 6047:1 12103:1 12628:1 
1 0.7037674454484406 0.3543081772706004 343:1 479:1 2271:1 10241:1 10429:1 
0.7880145736426919 0.9315947299882186 0.8193318814047603 2777:1 10530:1 10879:1 13827:1 
0.4949840698136097 0.7277451051210294 0.5466701672078883 834:1 2040:1 6600:1 7779:1 8613:1 8740:1 9965:1 13543:1 
0.6777567297545209 0.4610545391915802 0.601836418165891 1884:1 4763:1 7076:1 9350:1 10838:1 13593:1 
0.3987651166706013 0.07810288102725815 0.4052009911519139 3421:1 4310:1 6234:1 6841:1 11764:1 
0.6174045653787801 0.5232160522645789 0.5094457356531337 99:1 3177:1 3680:1 9037:1 10268:1 13703:1 
0.8899578902587213 0.482099508693947 0.3794013750634141 759:1 3300:1 4612:1 6175:1 7869:1 9834:1 12655:1 14261:1 
0.9550486257084569 0.05891637191600287 0 834:1 3840:1 8154:1 9674:1 10451:1 10989:1 11736:1 
0.1883240842951385 0 0.3706650266684337 550:1 7869:1 8011:1 10669:1 
0.6563821322111468 0.3018026871008974 0.1746077698208864 4084:1 6006:1 7070:1 11741:1 13703:1 13842:1 
0.3297466446412208 0.2013994086601649 0.2595227705261268 2829:1 8541:1 13831:1 13857:1 13928:1 
1 1 1 13827:1 
0.4829955883526433 0.3517238498939492 0.3507234308859137 830:1 1801:1 2649:1 3700:1 7644:1 9703:1 13177:1 
0 0 1 2281:1 5285:1 
0.1264267378842302 0.9809718967286417 1 1798:1 9649:1 13827:1 
0.09403800367693392 0 0.1754448983710348 92:1 581:1 2536:1 2583:1 6367:1 11601:1 12251:1 13143:1 
0.4934427004016949 0.003581371155356454 0.3331144762466536 2736:1 4142:1 4642:1 11741:1 12550:1 12670:1 
0 0 1 2281:1 5285:1 
0.8137616301750293 0.006712382639184596 0.2460930877370555 4990:1 5593:1 7724:1 12328:1 14546:1 
1 0.8814093348385423 0.8671426148222561 4760:1 13618:1 
0.8548303921570773 0.1962181494651403 0 6788:1 7643:1 7644:1 12531:1 13827:1 
0.550350179312771 0.758174251795964 0.3551332210877842 928:1 5241:1 7758:1 11977:1 13181:1 
0.5256834167416795 0 1 2281:1 5285:1 
0.09097006984351666 0.2808015624996295 0.1834569307152096 2978:1 4245:1 4864:1 5753:1 8881:1 12130:1 
0.1312169467865623 0.09096768043687381 0.06795746603073506 261:1 1253:1 1400:1 1900:1 4847:1 10894:1 12578:1 13845:1 
0.6581549235473826 0.6072016594164023 0.4409333978665657 2653:1 3840:1 4889:1 5668:1 7368:1 7444:1 10867:1 11238:1 11940:1 
1 1 1 7277:1 
1 0.4082855816127521 0.3371856495122595 3446:1 4394:1 7367:1 7732:1 11263:1 13402:1 13827:1 
1 0.7429266019288473 1 2281:1 5285:1 
1 0.500786609024312 0.8321307927339043 914:1 11484:1 12888:1 
1 1 1 
1 1 1 477:1 1566:1 
0.9190261162809175 0.3986896654820544 0.5264898562357924 9182:1 11595:1 
1 0.8938617662552649 0.9509552270565629 5406:1 7296:1 7572:1 10429:1 11482:1 12048:1 13829:1 
1 1 1 4708:1 
0.587873317473358 0.5822504631676162 0.2672282670934192 768:1 1999:1 5949:1 6685:1 7076:1 10698:1 
1 0.4538206496974788 0.7149624718887243 479:1 7683:1 8154:1 
1 0.8387783857023042 0.886541957758884 3433:1 6959:1 9299:1 13507:1 13703:1 
0.2831189150603812 1 1 7994:1 10267:1 12198:1 13703:1 
0.9093201898259001 1 1 7994:1 10267:1 12198:1 13703:1 
1 0 0 834:1 2023:1 7235:1 8005:1 8031:1 9665:1 12821:1 
0.03778260887662546 0.2570867281077062 0 834:1 6865:1 7235:1 7530:1 7647:1 7976:1 8031:1 8261:1 
0.03851083404733604 0.3287859543589146 1 477:1 3221:1 3774:1 5498:1 11354:1 11473:1 13152:1 13827:1 
0.003281837957042401 0.4425480793708097 0.6499902160295004 477:1 3774:1 9217:1 9372:1 11473:1 11918:1 12997:1 13827:1 
0.09972491743737678 0.01158421186350796 0 1484:1 3502:1 5377:1 5966:1 6828:1 8716:1 8811:1 8852:1 9210:1 9372:1 12328:1 
1 0.8778249691042193 0.115819652003347 834:1 1272:1 6495:1 9122:1 13703:1 13827:1 
0.08457785112797522 0.2840846321243569 0 834:1 1272:1 9122:1 10515:1 13703:1 13827:1 
1 1 1 1152:1 6433:1 7235:1 10234:1 10288:1 
1 0.2624595627568462 0.7459171909774092 1152:1 1403:1 2078:1 7217:1 7235:1 10737:1 13483:1 
1 1 1 2440:1 9282:1 
1 1 0.9882459636967372 834:1 1272:1 9122:1 13703:1 13827:1 
0 0 0.2799222238768153 4881:1 5501:1 9462:1 13827:1 
0.7271158407784792 0.47637993592776 0.973681684704773 4881:1 5501:1 9462:1 13827:1 
0.8108418591053024 0.5959203344663023 1 3502:1 9687:1 11861:1 
0.413648594633262 0 0 5819:1 6399:1 7060:1 8250:1 10894:1 11861:1 11977:1 12276:1 
1 0.1049273632282822 0.5137276263708868 4338:1 7270:1 8948:1 10203:1 
1 0.08632173122172079 0.2531803141805234 8005:1 8588:1 11967:1 12888:1 
1 1 1 10436:1 13827:1 
1 1 1 8031:1 8212:1 9297:1 13827:1 
0.1875195371701489 0 0.08010755550669817 477:1 550:1 1757:1 5910:1 10258:1 13717:1 13827:1 
0.5495730873564428 0.8235328386891005 0.3349571842799641 4197:1 8250:1 8783:1 9102:1 12042:1 13736:1 
0.1860710898696803 0.4378561782938502 0.1675738631539238 3840:1 5191:1 9546:1 10829:1 12242:1 13703:1 
1 1 1 
1 0.456387030401877 0.2040847060079799 1082:1 5819:1 7462:1 7716:1 10221:1 10952:1 13829:1 
1 0.9402651664157118 1 834:1 7057:1 8624:1 
0.5638987245039147 0.5954287328309262 0.4700275729421204 574:1 1560:1 5248:1 7738:1 8990:1 12363:1 
1 0.4500521072049944 1 1088:1 3502:1 5198:1 8837:1 13827:1 
0.3807008072956455 0.7737520436098455 0 206:1 2878:1 4014:1 4344:1 5041:1 8295:1 11316:1 11593:1 12651:1 13827:1 
0.3010857230498041 0.4202757443827855 0.1079157654701772 834:1 3104:1 3446:1 3576:1 8492:1 11161:1 12384:1 13851:1 
1 1 1 2181:1 13827:1 
1 1 1 477:1 11394:1 13827:1 
0.7289300349125124 0.2010073435360839 0.3798608799558867 140:1 531:1 3670:1 4583:1 7741:1 8535:1 8811:1 8830:1 9478:1 11977:1 12391:1 
0.02620962418264292 0.2272803662336484 0.4480640083419805 1884:1 2114:1 2271:1 3792:1 5160:1 5358:1 6506:1 7716:1 9094:1 11607:1 13120:1 13827:1 
0.5239156733364098 0 0.3405234195127417 4582:1 5354:1 6704:1 7076:1 7229:1 13829:1 
0.2617108422541793 0.1814670767714873 0 115:1 2581:1 6201:1 7229:1 7869:1 8250:1 11977:1 13326:1 
1 1 1 7235:1 9700:1 13562:1 13827:1 
0.1001681893978199 0 0 3319:1 3760:1 7869:1 8250:1 10451:1 12048:1 
0.5879533972243244 0.5085007863851505 0 4428:1 6756:1 9089:1 9753:1 13562:1 13703:1 13827:1 
0 0.9763923622566122 0.9790829710626681 6855:1 12883:1 13827:1 
1 1 1 4475:1 11977:1 13827:1 14599:1 
0 0.385273592583134 0.248191217437181 372:1 537:1 7706:1 13279:1 13827:1 14591:1 
1 0.4609890677592053 0.721744642970389 768:1 7234:1 13827:1 13915:1 
1 1 1 4116:1 4864:1 7235:1 13827:1 
1 1 1 3446:1 8834:1 12814:1 13827:1 
1 1 1 5538:1 5763:1 10258:1 13827:1 
0 0.1900381662460171 0 261:1 308:1 468:1 477:1 3623:1 3765:1 13827:1 13829:1 
0 0.6566664088367239 0 261:1 308:1 468:1 3765:1 11473:1 13827:1 
0.2817318293851238 1 0 768:1 1139:1 1884:1 1911:1 2187:1 6433:1 6794:1 7732:1 8297:1 13827:1 
1 0.2637099083383056 0.4876421898040246 1979:1 2040:1 5374:1 5724:1 12028:1 12837:1 13149:1 
1 0.3007923630903688 0.4749417214312318 834:1 1421:1 3074:1 5362:1 6247:1 7163:1 
0.2030710560680103 0.2196106710862907 1 1590:1 8749:1 13827:1 14212:1 
0.9771599389185952 0.87865952243224 1 1590:1 8749:1 13827:1 14212:1 
1 0.4569198184059864 0.3686849670911005 7118:1 8297:1 9665:1 11111:1 11245:1 12176:1 12670:1 13703:1 
0 0.5297401389755696 0 159:1 2187:1 2978:1 6788:1 10894:1 
1 0.8615878621650448 1 2669:1 11904:1 13827:1 
0.7259386570931908 0.7097428990262966 0.8449063491198804 140:1 468:1 6947:1 8279:1 9299:1 9302:1 9978:1 11601:1 
1 0.3598556023491231 0.6829438885350628 3473:1 3805:1 4384:1 5242:1 
1 1 1 7886:1 11174:1 13256:1 
0.01027750571484624 0 0 2534:1 3136:1 4083:1 4431:1 5495:1 5737:1 7270:1 8154:1 8455:1 12222:1 
0.7388101430508917 0.1550973708275927 0.2412695761232219 2653:1 3502:1 3745:1 4431:1 7700:1 8542:1 10724:1 11076:1 
1 0.7931453026998156 0.5666630761743862 6609:1 8154:1 8414:1 10429:1 10699:1 10873:1 11977:1 13827:1 
0.2664064978645573 0.1841345613172677 0 1219:1 5761:1 8124:1 8398:1 9649:1 10365:1 11891:1 
0.820760141148526 0.4628480020985977 0.7385408778320722 477:1 4910:1 5367:1 5761:1 9604:1 13827:1 
1 0.951933069126817 0.6318773390696205 767:1 1798:1 4684:1 13168:1 14531:1 
0.8957148618729189 0 0.3397210424660078 345:1 6466:1 10258:1 13827:1 
0.1424651942087049 0.1785880147052647 0.2417616986211379 3502:1 3786:1 9182:1 9635:1 10843:1 10867:1 
0.3527823702534301 0.1133565310745917 0.0371085740710355 1505:1 2117:1 3570:1 5648:1 6495:1 9649:1 9665:1 11918:1 12321:1 13025:1 
0.1832749324987854 0.2748433362286992 0.3526757220527357 1880:1 2187:1 3502:1 7346:1 8962:1 11316:1 12946:1 13703:1 14160:1 
0.9541120858828497 1 1 1357:1 1669:1 6767:1 8912:1 13827:1 
0.3494152514678961 0.9374759758066665 0.3334512043381477 1357:1 1669:1 6767:1 10331:1 12014:1 13827:1 
1 0 0 2534:1 8154:1 
1 1 0.9954355212666393 2534:1 7235:1 13948:1 
1 0.9880372745933841 1 2534:1 
0.449519487324042 0.1042771272617846 0.5105927537601138 477:1 2308:1 2878:1 3774:1 4709:1 5896:1 8438:1 8852:1 11473:1 13827:1 
1 1 1 477:1 3774:1 10093:1 11473:1 13827:1 
1 0.007116621429154886 1 1503:1 4864:1 9885:1 13035:1 
0.5485826099264709 0.3229493526053905 0 873:1 8005:1 8846:1 10699:1 12651:1 13827:1 
0.1406327272436922 0 0 834:1 2023:1 7235:1 8005:1 9665:1 12821:1 
0.5481319950528115 0 0 6367:1 6506:1 6653:1 7291:1 8005:1 8852:1 10667:1 12651:1 13256:1 13703:1 
0.0687030423098193 0 0 3008:1 4275:1 5041:1 7035:1 8005:1 10879:1 12651:1 12782:1 14372:1 
0.1279756018448187 0 0 2698:1 2829:1 6519:1 8005:1 8396:1 9665:1 14591:1 
1 0.2634121579329038 0 8005:1 8250:1 11977:1 12651:1 14531:1 
0.6612470784468322 0.08301709685761496 0 8005:1 8740:1 10757:1 12295:1 
0 0.5626339361100773 0 8005:1 8588:1 11007:1 11967:1 12888:1 
0 0.02488233416800299 0 1810:1 2004:1 5188:1 8005:1 8171:1 8548:1 9423:1 9473:1 12848:1 
0 0.2177381552093947 0.3533709687066987 1139:1 1175:1 2281:1 3301:1 7590:1 7632:1 8005:1 11104:1 
0.5451373088458253 0.1353337006652847 0 800:1 6308:1 7869:1 7887:1 8005:1 8250:1 8886:1 11977:1 13631:1 
0.5298497132552109 0.1417428972059742 0.4710690569178895 5191:1 7949:1 7965:1 8005:1 8104:1 10429:1 
1 0.5500624034592434 0.1772374624366599 834:1 7270:1 12573:1 13279:1 13648:1 
0.3064992019931011 0 0 873:1 2940:1 5632:1 6305:1 9707:1 11240:1 11342:1 14450:1 
0.5529477581204428 0.2710470467138179 0.2848613099286565 6592:1 7506:1 7868:1 8652:1 12709:1 13703:1 
0.6416374325470168 1 0.8594792993867029 8260:1 11644:1 12749:1 
1 0.6587722255747782 0.884901544071053 1979:1 3745:1 4684:1 5656:1 13256:1 13593:1 13703:1 
0 0 1 10951:1 13827:1 
0 0.09165611773945503 0 477:1 834:1 1272:1 2243:1 3774:1 4852:1 9213:1 11473:1 13827:1 
0.341715762067649 0.9949711302553258 0 477:1 834:1 1272:1 2243:1 3774:1 4852:1 9213:1 11473:1 13827:1 
0 0.03218632541732632 0.3293558744355602 315:1 471:1 477:1 834:1 3774:1 4852:1 11473:1 13827:1 
0.4976921658989693 0.7488004385462821 0.2979198396999599 471:1 3446:1 4272:1 4852:1 13827:1 
0 0.7156654339929451 0.7651345086963955 471:1 834:1 2243:1 7204:1 12284:1 13827:1 
0.843711192335271 0 0 471:1 834:1 2243:1 10429:1 11977:1 12284:1 13827:1 
0.3084582415456197 0 0.081364451916749 2829:1 2862:1 5229:1 5427:1 6495:1 6507:1 7571:1 8377:1 8811:1 9312:1 9351:1 12832:1 
0.2147298630383953 0 0 834:1 2330:1 3104:1 5442:1 14434:1 
1 1 0.714452119445687 5377:1 7977:1 12800:1 
0.1928927494985503 0.4619992841669552 0 2777:1 4882:1 5741:1 13402:1 13703:1 
0.8231695876544033 0.4250183634394876 0.2322813742319024 834:1 1175:1 1904:1 4389:1 4513:1 7034:1 9213:1 9454:1 
0.7512684083547218 0.7615247702396174 0.8915262243797863 468:1 8117:1 9299:1 10844:1 12360:1 
1 1 1 10203:1 
0.2575381067405536 0 0.2661337897487965 8220:1 10203:1 13545:1 
0.1925193404158985 0 0.1435637521930483 4138:1 7572:1 7693:1 8161:1 8274:1 9473:1 10094:1 10699:1 13268:1 13805:1 
0 0.0961941507285574 1 477:1 3774:1 8852:1 10860:1 11473:1 13827:1 
0.5516819297320343 0.9985069293931367 1 477:1 3774:1 8852:1 10860:1 11473:1 13827:1 
0.2564743308821879 0.2321951154316565 0.01166477383894677 834:1 3098:1 5258:1 10768:1 11578:1 11763:1 12282:1 13047:1 13329:1 13977:1 
0.8300836066323618 0.223628550596139 0.1127967922535883 1357:1 5106:1 5645:1 9649:1 10705:1 
0.7313537292470701 1 0.4865397467594768 834:1 5188:1 5684:1 14261:1 14497:1 
0.9003084663868932 0.2034150063250948 0.4459525754501247 26:1 1082:1 2829:1 7076:1 
0.9248972370675922 1 1 7473:1 
1 0.7825507049997674 0.2660569158172308 834:1 3446:1 5258:1 10528:1 10699:1 
1 1 1 10046:1 
0.9895138952378104 0.2731739363111436 0.9322864617225187 5427:1 5546:1 5553:1 7594:1 13703:1 
1 1 1 13827:1 14380:1 
0.2413615291739386 0.04160617362312215 0.6006487269460902 1955:1 2170:1 3792:1 5525:1 7806:1 13268:1 
0.9565340379443996 0.2103151357556084 1 159:1 442:1 3547:1 4582:1 11977:1 
0 1 1 2187:1 2978:1 5420:1 5819:1 12103:1 13827:1 
0.01629245838795792 0.1285974701300923 0.3659896551184243 477:1 1390:1 2772:1 3774:1 4454:1 5427:1 6122:1 11473:1 13416:1 13827:1 
0.816505145932799 0.1263287619933367 0.1428878049847978 1764:1 3919:1 8250:1 9375:1 11977:1 12120:1 12790:1 13739:1 
0.4218374244161308 0.06819994144716519 0.1511291288676207 603:1 1196:1 1764:1 5528:1 6251:1 8154:1 9297:1 11977:1 12510:1 12848:1 
1 0.4754825986816673 0.8109931063656326 1503:1 1764:1 7076:1 8147:1 10429:1 13717:1 13829:1 
0.4528629647022412 0 0.1057301091532303 1509:1 1764:1 2581:1 4514:1 5272:1 7716:1 13416:1 
0.4181571955662193 0.03785856046214738 0 2589:1 2940:1 4197:1 5362:1 5536:1 7270:1 12779:1 
0.1326802578552497 0 0 1955:1 2018:1 8250:1 10429:1 10578:1 
0 1 0.9947102879501656 9753:1 11918:1 13703:1 13827:1 
0 0 0.004732068223714456 9753:1 13703:1 13827:1 
0 0 1 9753:1 13703:1 13827:1 
1 1 1 315:1 477:1 3774:1 8224:1 11473:1 13827:1 
1 1 1 1251:1 3912:1 5230:1 5233:1 8322:1 10407:1 13949:1 
1 0 0.5077400209617066 10951:1 13703:1 
1 1 1 3912:1 4958:1 11486:1 12222:1 13949:1 
1 1 1 1251:1 2403:1 3912:1 5230:1 5233:1 6977:1 13949:1 
1 1 1 4864:1 7235:1 8154:1 9061:1 10764:1 11298:1 11977:1 
1 0.6162840906907301 1 779:1 7230:1 13703:1 
0.4960629462117563 0.3034917733423726 0.5381578191523796 768:1 9152:1 9634:1 12385:1 13256:1 13884:1 
0.7274253603563587 1 0.6351781466677064 1078:1 1810:1 5054:1 7301:1 8194:1 9338:1 11175:1 13703:1 13827:1 
0 0.3825060190884355 0 1810:1 2187:1 2978:1 5534:1 12795:1 13545:1 
0.4218139072450495 0.2518281195610239 0.02185488966904427 1810:1 2330:1 5331:1 6778:1 10130:1 11977:1 12651:1 
1 0.1143882406873186 1 63:1 2330:1 13703:1 
0.910273044513045 0.2451695921703286 0.9421680869844901 6507:1 7217:1 8068:1 
0.70912313741525 0.07515708772829298 0.111912038056536 1500:1 2247:1 6935:1 9740:1 11904:1 13703:1 14458:1 
1 1 1 7076:1 13149:1 
1 1 0.4974043612226791 2862:1 5456:1 8640:1 9282:1 11081:1 13256:1 13703:1 13790:1 
1 0 0.2412472893390833 10951:1 13703:1 
1 0 0.01009007834641611 7076:1 10951:1 
1 0.00432957600679717 1 7076:1 10951:1 
0.2036690038019196 0.01132459192758886 0.07628235294859551 814:1 2935:1 8859:1 10951:1 12251:1 
0.2531309269105878 0.2392493979507822 0.002614057685945349 834:1 2959:1 10951:1 12314:1 
0.2218849547282537 0 0 10951:1 12257:1 13416:1 
0.3184639876861233 0 0.07422049516944286 1927:1 5102:1 5659:1 7270:1 10231:1 12014:1 13703:1 
0.235887131620287 0 0.04582622545785873 1775:1 2403:1 3817:1 7060:1 8873:1 12809:1 13256:1 13703:1 13769:1 
0.5144789585217332 0.5502040365381341 0.1732460353422864 5819:1 6006:1 10137:1 11700:1 12328:1 13827:1 
0.7279039385874289 0 0.03288032035385633 3502:1 5741:1 8031:1 9687:1 11861:1 
0 0.2248194398185187 0 2736:1 4394:1 5819:1 6006:1 7820:1 13827:1 
1 1 1 7076:1 
1 0.3811703114652293 0.4959338191947302 635:1 5202:1 13703:1 14203:1 
1 1 1 10258:1 13827:1 
0.02496726733718882 0.5794072714821522 0.006822609846641852 799:1 4863:1 6685:1 7235:1 7277:1 8154:1 13021:1 13149:1 
0.6973117277633143 0.0579033370021553 0 514:1 3792:1 4344:1 4826:1 8154:1 8297:1 10699:1 12651:1 13571:1 
0 0.08396588487003182 0 631:1 1503:1 1810:1 4479:1 4743:1 7462:1 9631:1 12949:1 13545:1 13717:1 
0.2722412967228039 0 0.3314772288606475 635:1 3279:1 3792:1 7290:1 7716:1 8881:1 9732:1 10450:1 11977:1 13827:1 14510:1 
0.2145541963258965 0 0 63:1 261:1 8120:1 8731:1 8873:1 10958:1 11607:1 13703:1 
0.3096540147827583 0.002656238901404396 0.2435666012455304 564:1 3840:1 5362:1 10894:1 13696:1 13703:1 
0.9325604074089229 1 0.9998644341510758 1078:1 7235:1 9544:1 10593:1 
1 1 1 834:1 10689:1 11850:1 12996:1 
0.6887656196390383 0.9329167982195052 0.9501462793487828 1184:1 3446:1 6592:1 7035:1 9800:1 12674:1 13703:1 
0.07973642851520728 0.2046188859329013 0.1625870342218838 534:1 1029:1 1251:1 3912:1 4582:1 8899:1 11484:1 11933:1 13703:1 13827:1 14412:1 
0.1410488339423815 0.1854314777549207 0.07204669254777211 261:1 834:1 998:1 3446:1 9206:1 13778:1 
1 0.6471501311841352 0.5546155126386522 6423:1 7581:1 8154:1 12068:1 13256:1 13703:1 
0.2127090490869085 0 0 2940:1 3964:1 4743:1 7229:1 9182:1 9635:1 14339:1 
0.9958766275886803 0 0.5506369271870334 5258:1 6852:1 8154:1 8858:1 
0.7100412872016131 0 0 3850:1 4882:1 5258:1 5310:1 7076:1 
0.2191734713499097 0.1083388940254017 0 268:1 1078:1 3912:1 6753:1 8154:1 8535:1 9432:1 12778:1 
0.1022913294522587 1 0.27743373559651 4324:1 6006:1 12304:1 13195:1 13827:1 
0.7732962418939433 0.6281215241307474 0.5636574139793462 2068:1 6362:1 6580:1 7076:1 9781:1 12370:1 14492:1 
0.2128313833641117 0 0.03336093171476152 531:1 5981:1 6659:1 6690:1 7270:1 8305:1 9420:1 11977:1 
0.2046930489835221 0 0.2095110822799497 229:1 519:1 639:1 2018:1 12377:1 13059:1 13703:1 
0.31782274423895 0.2100230101378258 0.5581025575137143 7820:1 9098:1 11977:1 13827:1 
1 1 0 2940:1 5188:1 11977:1 
1 1 1 11977:1 12042:1 13827:1 
1 0.4916376649157762 0.7166636609440334 1784:1 4310:1 5121:1 8272:1 13402:1 13703:1 
0 0 0.1066803590311109 3008:1 4509:1 6592:1 6855:1 10273:1 10728:1 10867:1 12317:1 13703:1 
0.4785445598154135 0.4316352618182448 0.6693927738223833 3713:1 4910:1 10297:1 13152:1 13827:1 
0.8437006160885643 0.7149190404915322 0.1214011141426693 2291:1 5515:1 7368:1 7399:1 8555:1 
1 1 1 3760:1 13829:1 
0.4091182267994571 0.2871552076659908 0.1591395998830208 4524:1 4711:1 5035:1 5184:1 8902:1 10253:1 12779:1 13014:1 13046:1 
1 1 1 477:1 3774:1 10824:1 11247:1 11473:1 11918:1 13827:1 
0.6145975894879071 0.477725321196401 0.6362946908607966 6096:1 9524:1 12170:1 13703:1 
0.7311151313110495 0.2882598000820777 0.3268582751883395 2004:1 6271:1 8404:1 9610:1 12671:1 13703:1 13717:1 
0 0.0235582730847653 0 5684:1 6495:1 6674:1 8154:1 9414:1 10094:1 12833:1 13256:1 13703:1 
0.5495120268594038 0.09039766100764531 0.1918127803376573 6223:1 7460:1 8250:1 11977:1 13845:1 
0.7622058254020275 0.1433435752983802 0.3967252094206894 4826:1 7444:1 7716:1 13827:1 
1 1 1 2829:1 8154:1 
0.3539392193956481 0.714375138402001 0.4548930063491893 590:1 4505:1 7387:1 11977:1 13053:1 13945:1 
1 1 0.6788971005126504 343:1 5208:1 8154:1 11977:1 13827:1 
0.330960704039659 0.05358710785879761 0.2718938767629728 1442:1 3184:1 3792:1 3869:1 3873:1 4743:1 7404:1 10043:1 11278:1 
1 0.2038719410129736 0.4385928599985435 207:1 2606:1 7647:1 8154:1 11977:1 13256:1 13703:1 
1 1 1 3792:1 7076:1 8396:1 8637:1 13827:1 14531:1 
0.4694253382258841 0.5203951816159309 0.914029492111514 477:1 3774:1 4654:1 5205:1 11473:1 13827:1 
1 1 1 6507:1 13851:1 14456:1 
0.9994047300903508 0.453396637195285 1 4817:1 13828:1 
0.8234199981340052 0.09117125413265931 0.2322148952980073 550:1 834:1 1784:1 1821:1 7235:1 11875:1 12573:1 14314:1 
0.3391086618289281 0.4831452043245163 0.627269848517396 4466:1 10352:1 12639:1 13053:1 13827:1 
1 0.6447738543332726 1 297:1 834:1 7461:1 13758:1 
0.4427693694552277 0.2332609100589181 0 4828:1 5981:1 7368:1 7677:1 
1 0.845527513021019 1 268:1 631:1 
1 1 1 2523:1 
1 1 1 1078:1 1955:1 11963:1 
0.668954372542267 0.2425745349783981 0.3432648774057607 1580:1 3912:1 5353:1 8916:1 9665:1 12213:1 14535:1 
1 0.6644552045598464 0.9713316095879424 2859:1 7076:1 14093:1 
1 1 1 1979:1 4864:1 7643:1 8861:1 13703:1 
1 1 1 3792:1 6122:1 10699:1 13827:1 
1 0.694456712402088 0.9999999999999998 4706:1 7076:1 9433:1 
1 1 1 1475:1 7391:1 
1 0.7197550250545128 0.8679660434078995 4997:1 5981:1 7235:1 8154:1 
1 1 1 7226:1 8915:1 12251:1 13827:1 
0.5110240732050039 0.2335739175692387 0.321659078037037 1925:1 2910:1 3571:1 5427:1 5754:1 7813:1 11106:1 11977:1 12023:1 12115:1 
0.3013024734770507 0 0.2252568088915476 1503:1 2609:1 3674:1 8120:1 9723:1 11007:1 11201:1 12199:1 12402:1 13703:1 13717:1 14069:1 
1 1 1 2934:1 7296:1 10241:1 13827:1 
0.2657617190355582 0.5879347242685715 0.5253749138523627 315:1 477:1 3774:1 6909:1 8904:1 9426:1 9835:1 11473:1 13827:1 
0.4238063452916097 0 0 1810:1 2018:1 5272:1 8740:1 10699:1 11977:1 12213:1 13669:1 
1 1 1 
0.5279581801644067 0.4710462051767385 0.6236550551442714 1463:1 4509:1 6592:1 7868:1 13256:1 13703:1 
1 1 1 9274:1 10699:1 14531:1 
0.931732490100953 1 0.8841459072025887 5258:1 5836:1 
0.695741302561917 0.706286179055301 0.4495164111878611 856:1 2304:1 2773:1 5668:1 7869:1 11607:1 
0.1567496839036987 0.148901391946685 0.1091296772763716 538:1 671:1 2743:1 3773:1 4880:1 6096:1 10472:1 12255:1 
1 1 1 834:1 4183:1 6171:1 
1 1 1 4880:1 
0.2469203362458969 0.04700447834382382 0 550:1 2146:1 5317:1 6192:1 8031:1 8915:1 13703:1 
0.1299904672523375 0 0.1503527375288489 2675:1 3499:1 4394:1 5435:1 5462:1 7673:1 8154:1 9372:1 
0.2626947791871301 0.1880006163033814 0.1824716820260931 2514:1 4196:1 4394:1 6697:1 6986:1 7291:1 7432:1 9277:1 11052:1 13703:1 
0.00616484083390076 0 0 73:1 2989:1 4394:1 4882:1 6085:1 9665:1 11139:1 13717:1 
0.5607461339207275 0 0.01179116423035427 115:1 550:1 845:1 1475:1 2975:1 8250:1 13482:1 14306:1 
0.1772773508950329 0.429848764568132 0.2123774967861848 2975:1 5046:1 7683:1 10603:1 11977:1 12176:1 12651:1 
1 0.7953682733296049 0.6569878927366434 1308:1 4955:1 5359:1 7076:1 9206:1 12251:1 
0.1777070260064397 0 0 159:1 4284:1 4817:1 7775:1 8154:1 9277:1 14341:1 
1 0.2719594761270629 0.04704554950775481 477:1 845:1 2736:1 3104:1 6507:1 8555:1 
1 1 0.9778944495601807 468:1 4882:1 8731:1 13827:1 
0.7835090810495824 1 0.3664955836304549 768:1 2640:1 6935:1 9102:1 9455:1 14492:1 
0.3379746489409707 0.3930920361091466 0.3974057614145939 270:1 308:1 1250:1 4344:1 6122:1 11705:1 12467:1 
0.2716013708562692 0 0 2534:1 4565:1 7732:1 9189:1 9965:1 11920:1 12251:1 12255:1 
1 0.06684330661289266 0.6184165912928973 9665:1 9943:1 10746:1 13703:1 13717:1 14478:1 
1 0.8720548577481264 1 550:1 8043:1 13703:1 
0.5131995841614361 0.2789061901734448 0.1440338257542954 1018:1 5464:1 6882:1 8709:1 9687:1 9796:1 13659:1 
1 1 1 
0.2703706837048697 0 0 159:1 261:1 8551:1 10577:1 10699:1 12651:1 
1 0.746549765344607 1 2770:1 10169:1 13827:1 
1 1 1 8899:1 13703:1 
1 0.6658399433683326 1 2018:1 2169:1 
0.7210136413506547 0.3647070155068112 0.534703009320878 1798:1 2185:1 3656:1 7550:1 8212:1 8409:1 
1 0.9200490069018251 1 1904:1 7341:1 
0.8406147607103948 0.2853087455937577 0.8082028143321069 4472:1 6599:1 12510:1 13827:1 13886:1 
0.05007569177501044 0 0 5188:1 5356:1 
1 1 0 1078:1 8005:1 8250:1 11361:1 11977:1 
1 1 1 13827:1 
1 0.7726590147573158 0.7434690366323858 5531:1 8248:1 12909:1 13827:1 
0.6660550041128763 0.862939508723418 0.1357277246058156 635:1 7404:1 8031:1 13827:1 
0.3110373801243027 0.1569198899247874 0.2265616814522001 1247:1 2809:1 3469:1 7234:1 7930:1 8031:1 13702:1 13703:1 
1 0.5300516430994555 0.9660756303187205 7745:1 8031:1 10879:1 12216:1 13827:1 
0.6241661145387433 0.3094361718501755 0.3785784584426307 261:1 8031:1 11775:1 12674:1 13827:1 
0.4350849454957344 0 1 8031:1 9753:1 13703:1 13827:1 
0 0 1 7199:1 8031:1 10429:1 11022:1 12072:1 12814:1 13827:1 
0.1887348701003088 0 0.2792762119845325 7199:1 8031:1 10429:1 11022:1 12072:1 12814:1 13827:1 
1 1 1 657:1 8031:1 9742:1 12888:1 
1 1 1 3912:1 7187:1 8031:1 11245:1 
1 1 1 226:1 834:1 8031:1 9350:1 
1 0.3402063066211153 0.4171879128370508 4828:1 5981:1 7368:1 7677:1 8031:1 
0.4418324722392866 0.3912440594576795 0.3834214345646241 3771:1 4454:1 4618:1 6438:1 6803:1 7234:1 8031:1 13251:1 
0.3962172754998124 0.0200403545797901 0.095262160406567 3484:1 7650:1 8031:1 9001:1 10451:1 11104:1 11356:1 12651:1 
1 0.5297212700401481 1 2004:1 2929:1 3301:1 4384:1 5668:1 6551:1 8031:1 8956:1 
1 1 1 6551:1 8031:1 10699:1 13827:1 
0.4664136780620792 0.3055735208013366 0.5766099954192309 1775:1 4861:1 8031:1 12316:1 13827:1 14594:1 
0.5165887890126094 0.2211546092914548 0.5416999542426481 3502:1 3869:1 4684:1 8031:1 8899:1 12156:1 12205:1 12322:1 
1 1 1 3850:1 4479:1 7076:1 8031:1 
1 0.8360336874914975 0 261:1 308:1 468:1 1251:1 3765:1 4909:1 8031:1 
1 1 1 1934:1 3446:1 8031:1 
0.4673390165266351 0.1171427487195087 0 706:1 1357:1 1669:1 7682:1 8031:1 9753:1 13703:1 13827:1 
1 1 1 7473:1 8031:1 
0.2026115281948188 0 0 3098:1 4684:1 5103:1 8031:1 8501:1 8899:1 11410:1 12156:1 13429:1 13703:1 
0 1 1 8031:1 9845:1 13886:1 13994:1 
0.7057814927413586 1 1 8031:1 9845:1 13886:1 13994:1 
1 0.837265266861245 1 315:1 5745:1 8031:1 8637:1 13703:1 
0.03712891603366111 0.0008180920676280137 0.001093913383742809 1798:1 2185:1 3656:1 7550:1 8031:1 8212:1 8409:1 9091:1 
1 1 1 5396:1 8031:1 
0.5578596599410097 0.002245889925363895 0.1941381430681119 873:1 2899:1 4922:1 5495:1 5842:1 7076:1 8031:1 11007:1 12316:1 
1 1 1 8031:1 13827:1 
0.4417085825956984 0.5566902033714062 0.1418347061600498 2978:1 3164:1 5241:1 7454:1 8031:1 12402:1 
0.03694181526771407 0 0 2940:1 3964:1 4743:1 6112:1 7229:1 8031:1 9182:1 9635:1 14339:1 
0.07817143320816644 0.4359800063788689 0.2104367595158811 4197:1 5628:1 5789:1 6885:1 8005:1 8031:1 10699:1 11361:1 12778:1 14200:1 
1 1 1 7076:1 8031:1 13545:1 
0.5039764997648964 1 0 1625:1 2242:1 4711:1 6882:1 8031:1 10838:1 11226:1 11918:1 
1 1 1 8031:1 
0.8581964728557848 0.2100440029912931 0.04688012960875634 226:1 834:1 1979:1 8031:1 9350:1 10843:1 11929:1 
0 0.01751201793035745 0 1968:1 2187:1 2978:1 5819:1 6221:1 6788:1 7404:1 7732:1 8031:1 13827:1 14183:1 
0.6772714853052374 0 0.4011519981371612 856:1 8031:1 8899:1 10423:1 13181:1 13703:1 
1 1 1 260:1 477:1 8031:1 9965:1 11977:1 13827:1 
0.5674456281161607 0.4447346774550084 0.7538933034395506 3816:1 5188:1 5695:1 8031:1 9414:1 11331:1 
0.1560295357350002 0 0.02891056742413816 514:1 1936:1 1999:1 7076:1 7229:1 8031:1 
0.8588096797498176 0.4091935957358481 0.2881033980340286 4546:1 6975:1 7716:1 8031:1 10353:1 13703:1 
0.7442143176728493 0.3377774322305186 0.1321706821765409 1999:1 2753:1 7076:1 8031:1 9350:1 10663:1 
1 1 1 8031:1 10258:1 13827:1 
0.2809973891061732 0.5324487968994741 0.06694953397906826 1634:1 1979:1 3571:1 4394:1 5763:1 8031:1 10203:1 11977:1 
1 0.9812143732638184 0.8625138960485939 3871:1 5356:1 8031:1 8915:1 13703:1 
1 0.6752066282509137 0.6383160663223255 8031:1 8740:1 8952:1 9390:1 11977:1 
0.6351301245100825 0.4474187537629059 1 5198:1 8031:1 9111:1 13827:1 
0.2223027859273432 0.742065502592029 0.1313331986380806 834:1 2330:1 3560:1 8031:1 8492:1 
0.9274351751905597 0.7638960439613071 1 7735:1 8031:1 8043:1 13703:1 14491:1 
1 1 1 834:1 982:1 3433:1 8031:1 8915:1 9473:1 13703:1 14531:1 
0 0.01269496516449642 0.07072491194015151 550:1 2978:1 7700:1 8031:1 8670:1 10472:1 11384:1 11397:1 12980:1 13147:1 13703:1 14470:1 
0.1309816636059829 0.2174216214607059 0.2614692918731692 664:1 1589:1 5200:1 5593:1 6918:1 8031:1 8556:1 9355:1 10106:1 12778:1 13703:1 
0.2223162546513932 0.09974448594516458 0.5988012754686833 1175:1 5527:1 7861:1 8031:1 11482:1 11977:1 14531:1 
0.7383157692861744 0.1122340722729436 0.513640594632271 873:1 5427:1 8031:1 9264:1 9761:1 
1 0.7323162671313562 0.6971934711003767 834:1 2023:1 7235:1 8005:1 8031:1 9665:1 12821:1 
0.6737947616157998 0.8040879261724144 1 1968:1 2978:1 6433:1 7300:1 8031:1 12833:1 14200:1 
0.8239303637217131 0.4482793797044582 1 271:1 1460:1 6672:1 8031:1 13827:1 
0.07593768771915881 0.153209363758987 0.7560162673841859 3098:1 3792:1 4725:1 8031:1 9297:1 11741:1 12709:1 13827:1 
1 1 1 1078:1 8031:1 10123:1 
0.3086514128448168 0 0.1395420322558008 531:1 7235:1 8031:1 8154:1 9270:1 12242:1 13827:1 
0.3985711446575614 0.3583957616205669 1 7935:1 8031:1 10639:1 13827:1 
1 1 1 5396:1 8031:1 11409:1 
1 1 1 1383:1 7184:1 7235:1 8031:1 
1 1 1 1153:1 7184:1 7235:1 8031:1 
1 0.9836046013806727 1 4384:1 8031:1 11262:1 13827:1 14531:1 
1 1 1 1152:1 1421:1 7235:1 9814:1 10288:1 13610:1 
0.3661912218874561 0 0.0756339519827911 4297:1 4472:1 7235:1 7738:1 10034:1 10232:1 11022:1 11905:1 11977:1 
1 1 1 1152:1 1625:1 8396:1 10288:1 11977:1 13483:1 13827:1 
0.3174055272630425 0.1424848858879035 0.1720228166924723 4091:1 4654:1 5770:1 9723:1 12696:1 13703:1 
0.698200456504693 0.270079404671431 0.3746086102943749 65:1 2423:1 3279:1 3361:1 6386:1 6446:1 6741:1 10536:1 10699:1 
1 0.7030905132874158 0.6620889482198883 531:1 4854:1 11977:1 12773:1 12865:1 
1 0.2696474135109824 1 1503:1 4783:1 7301:1 
0.931089462723878 0.1805403053098487 0.5144328501991354 115:1 6829:1 7362:1 7368:1 11059:1 12778:1 
0.3930524015345586 0.6058915236062395 0.2127663571907477 3304:1 4693:1 4824:1 5579:1 7270:1 9877:1 13091:1 
0 0.01544757979550917 0 349:1 1175:1 5136:1 5184:1 5188:1 5427:1 8250:1 12651:1 14531:1 
0.3992804752335392 0 0 159:1 4562:1 10203:1 11929:1 
0.659198724843914 0.2437328223473575 0 2940:1 3578:1 4861:1 4880:1 5427:1 5553:1 6228:1 7368:1 9414:1 11077:1 14122:1 
1 0.6283060942765288 0 2940:1 7935:1 12883:1 13827:1 
1 0 0.4711470700113069 261:1 7779:1 10829:1 13703:1 
0.0002377866462448651 0 0 550:1 2146:1 5317:1 6192:1 8031:1 8915:1 10170:1 13703:1 
0.7258200054528382 0 0.3087455938354089 2802:1 5427:1 8250:1 9414:1 10123:1 11977:1 12651:1 
0.7625638049533514 0.1583192968499405 1 514:1 3850:1 7076:1 10705:1 
0.6372645436411111 0.6781546503438001 0 60:1 2934:1 6950:1 8154:1 13256:1 13427:1 13703:1 13829:1 
1 1 1 2701:1 7076:1 
1 0.0807385551965126 1 873:1 3872:1 7301:1 9537:1 9978:1 
0.5053732489110251 0.1264412272066588 0.3291547945066092 799:1 1884:1 2672:1 2911:1 5668:1 5684:1 8154:1 11001:1 11764:1 13120:1 
0.9056606406623511 0.6796233595859188 0.6443442877462662 834:1 2159:1 2383:1 2963:1 3446:1 8978:1 9130:1 10932:1 
0.8828001226923827 0 1 3912:1 4684:1 5103:1 8261:1 10046:1 11794:1 13949:1 
1 0.5818216406821108 1 3912:1 4684:1 5103:1 8261:1 10046:1 11794:1 13949:1 
1 1 1 4154:1 13659:1 13827:1 
0 0.42929453809145 0 261:1 468:1 7869:1 13827:1 
0.507379852006921 0.4389764681623296 1 477:1 1175:1 1282:1 3254:1 3774:1 9634:1 10353:1 11473:1 13827:1 14012:1 
1 1 1 6885:1 11500:1 13827:1 
1 0.1026041191961836 0.2451215848263278 1927:1 5358:1 6327:1 6885:1 7076:1 9217:1 10123:1 
0.5537733396940995 0.2400138088208008 0 1560:1 3168:1 4344:1 7226:1 7462:1 9649:1 12348:1 13408:1 
0.1872101202254065 0.210408607932095 0.2574645599133399 255:1 834:1 3446:1 4298:1 4684:1 8404:1 8585:1 13576:1 
1 1 0.6667800746534104 10840:1 12474:1 12882:1 
0.5955977215147854 0.4458521345126858 0.372351740965578 834:1 2155:1 5362:1 5427:1 5678:1 9311:1 10052:1 
0.9017653690439179 1 1 477:1 1784:1 2004:1 3774:1 5025:1 11473:1 13827:1 
1 1 1 834:1 3104:1 3446:1 8492:1 13047:1 
0 0 0.001285760257615497 708:1 1247:1 2809:1 3469:1 7234:1 7930:1 13702:1 13703:1 
1 0.6098826602798961 1 226:1 7076:1 9350:1 13659:1 
1 0.7148728624996878 0.577315259189579 1387:1 2051:1 7060:1 11473:1 11977:1 13827:1 
1 1 1 468:1 3026:1 13827:1 
0.787262152896063 0.9681645018477597 0.4503934102457576 115:1 2195:1 5789:1 5940:1 7291:1 9707:1 9892:1 11977:1 12114:1 
1 0.7163682577988097 1 834:1 1595:1 7581:1 8813:1 9579:1 
0.5137905694110179 0.3518323277817763 0.2473096405524265 3502:1 4922:1 6647:1 8422:1 9013:1 11331:1 13703:1 13790:1 
1 1 1 9213:1 12460:1 13703:1 
1 1 1 479:1 1316:1 2023:1 7199:1 8396:1 10398:1 13827:1 
0.05097924126344556 0 0 1272:1 1810:1 4743:1 5427:1 6466:1 8916:1 9613:1 
0.4264302710496112 0.1891266127919392 0.9078477186941136 9800:1 13444:1 13827:1 
0.3729032747893883 0.1831152455766164 0.2674314638706566 2411:1 3177:1 3723:1 6653:1 6674:1 7677:1 8756:1 13703:1 
0.6228434232299989 0.7270787060404378 0 118:1 2383:1 2478:1 2839:1 2940:1 8031:1 13948:1 
0.3131155259827735 0 0.03995101518678502 2271:1 3986:1 5005:1 5427:1 5819:1 6006:1 6122:1 10603:1 11318:1 12328:1 13649:1 
0.5626884671572374 0.3578616759708631 0.5612484616536573 477:1 834:1 1357:1 2195:1 7300:1 8973:1 9071:1 9350:1 9351:1 11407:1 11887:1 13827:1 
1 0.4415378606409838 0.5558372089733179 834:1 4699:1 7732:1 9185:1 
0.3847560720026236 0.07082253868774981 0.02071129758873678 2934:1 3374:1 5188:1 5795:1 5819:1 7343:1 8011:1 9518:1 11004:1 12577:1 13047:1 14011:1 
0.02675491759456479 0 0 5427:1 8011:1 8154:1 9277:1 10894:1 11920:1 
0.6661353938566407 0.3918300943361059 0.2724276589164442 1629:1 3214:1 3502:1 3840:1 8856:1 9372:1 10127:1 10545:1 12136:1 13703:1 
0.4850491275054564 0.6945559738023465 0.5553841887755886 479:1 1614:1 1786:1 7076:1 9674:1 9828:1 11259:1 
1 1 1 2796:1 13827:1 
1 1 0.582622018869413 1979:1 3964:1 4384:1 12114:1 13925:1 
1 0.3645307835414375 0.5577799511438761 7069:1 7820:1 11977:1 
0.295370598419161 0.2377759205390787 0.2173684217775497 2306:1 7520:1 11760:1 
0 0.02408640797985768 1 9845:1 13886:1 13994:1 
1 1 1 3792:1 11977:1 13827:1 
1 1 1 3478:1 3792:1 8396:1 11977:1 13827:1 
1 1 1 3792:1 8396:1 10310:1 11977:1 13827:1 
1 1 1 3792:1 7716:1 8396:1 11977:1 13827:1 
0.541009053483922 0.4249500057575789 0.4365899858011232 834:1 3446:1 4817:1 5367:1 6885:1 12379:1 13703:1 
0 0 0.3902015924214901 657:1 2545:1 7281:1 8846:1 11977:1 13827:1 14200:1 
0.2142320146991857 0 1 657:1 2545:1 7281:1 8846:1 11977:1 13827:1 14200:1 
0 0.4313716202206831 0 3568:1 4344:1 5272:1 6704:1 7387:1 7663:1 8250:1 11245:1 12401:1 
1 1 0.3667861052255052 6006:1 8396:1 8839:1 8952:1 13827:1 
1 0.9195837673217211 1 2629:1 10258:1 10353:1 10363:1 13827:1 13829:1 
0.3280686024793384 1 1 834:1 2804:1 3114:1 7530:1 8962:1 13703:1 
0.7637406410724342 0.2597464537646705 0.9162162715034378 4338:1 7235:1 8046:1 11410:1 11943:1 13790:1 
0.2291675204951365 0.4822580988745968 0.4961907674272882 1419:1 2536:1 3352:1 8815:1 9665:1 9686:1 11794:1 13669:1 13827:1 
0.6925215074548376 0.01779264054112318 0.02045593138495349 63:1 477:1 1503:1 5374:1 8422:1 8873:1 11904:1 12036:1 13703:1 13717:1 13827:1 
1 1 1 9206:1 11977:1 13827:1 
1 1 1 834:1 7235:1 
1 0.4467275734254742 1 7732:1 10429:1 11546:1 11977:1 13827:1 
0.2435064327191986 0.06330333933115893 0.1508971834961829 2048:1 3263:1 4505:1 5525:1 7169:1 8758:1 9478:1 11977:1 13055:1 
1 1 0.9996982967214681 5358:1 7076:1 7783:1 11920:1 
1 1 1 4734:1 10429:1 11977:1 
0.2954417968530094 0 0 2339:1 2423:1 2940:1 3964:1 5237:1 8856:1 11522:1 14172:1 
1 0 0 226:1 2940:1 
0.7510872930552092 0.4901410672687248 0.08636603460728735 471:1 1334:1 9355:1 11918:1 13335:1 13703:1 
1 1 1 
0.3232461402264541 0.1491978712159267 0.5949947615432095 834:1 2809:1 7520:1 9845:1 
0.5849664374210307 0.6131388218894441 0.692085281174698 550:1 8500:1 9991:1 13703:1 
1 1 1 1884:1 5678:1 7076:1 
1 1 1 1979:1 13402:1 13560:1 
1 0.1728654172108949 0.2361671031314422 1733:1 1955:1 5819:1 7724:1 12328:1 13827:1 14591:1 
1 0 1 1480:1 1999:1 7076:1 
0.7731501539150376 0.4957813836399606 1 1925:1 9935:1 13827:1 
1 0.2981701898384157 0.3579030032383004 834:1 3433:1 4556:1 8595:1 
1 1 1 2940:1 
1 1 1 834:1 7235:1 9428:1 
0.9159732912359938 0.8476414092450392 1 5515:1 7459:1 13827:1 
0.2581804121441522 0 0.1925387825042918 2291:1 5359:1 6247:1 6609:1 8047:1 10365:1 13703:1 
1 1 1 3908:1 6433:1 10258:1 11977:1 13827:1 
0.4402850188782174 0 0 471:1 1927:1 9182:1 10952:1 13256:1 13703:1 
0.08493120328889033 0.03336485788215516 0.1460629431629235 1662:1 3598:1 6812:1 7391:1 9160:1 9800:1 9934:1 
1 0.5630536259452715 1 1503:1 5977:1 13717:1 13827:1 
0.1707295390018603 0.2267511637020281 0 2701:1 3873:1 5237:1 6788:1 12384:1 12922:1 13256:1 13703:1 
0 0.08342868105430956 0 1968:1 2187:1 2978:1 5819:1 6221:1 6788:1 7404:1 7732:1 13827:1 14183:1 
0.4079175979411866 0.4293926249943001 0.1565641166072634 563:1 3822:1 4412:1 4708:1 5264:1 6788:1 12579:1 13703:1 
0.4475098809658078 0 0 1403:1 1480:1 2523:1 3792:1 4203:1 5819:1 5950:1 7520:1 12651:1 14509:1 14531:1 
1 0.3781667475150115 0 8740:1 8952:1 9390:1 11977:1 
1 0.518237251561282 0.8502134116205771 537:1 5694:1 12651:1 
0.0887117982621862 0 0.6772836585842887 261:1 3792:1 6034:1 8637:1 9102:1 
-0 0 0.007426272567642681 3275:1 7076:1 9070:1 9217:1 9665:1 10046:1 13041:1 13124:1 
-0 0.4899425831920854 1 918:1 7235:1 7994:1 14314:1 
-0 0 1 2512:1 5358:1 7076:1 
-0 0.8760906023240158 0 1152:1 4556:1 5121:1 7235:1 10288:1 11977:1 13827:1 14076:1 
-0 0 1 1480:1 1979:1 3446:1 4424:1 8154:1 11794:1 12802:1 13827:1 14510:1 14531:1 
-0.331048744965757 0.007485301571276651 0.03601096236913894 3502:1 5427:1 6651:1 7076:1 7341:1 10952:1 11832:1 
-0 0 0.8339433819576045 1480:1 1979:1 3446:1 4424:1 8154:1 8948:1 11794:1 12802:1 13827:1 14510:1 14531:1 
-0 0 1 1480:1 1979:1 3446:1 4424:1 8154:1 11794:1 12802:1 13827:1 14510:1 14531:1 
-0 0 1 1480:1 1979:1 3446:1 4424:1 8154:1 8948:1 11794:1 12802:1 13827:1 14510:1 14531:1 
-0 0 1 1480:1 1979:1 3446:1 4424:1 8154:1 8948:1 11794:1 12802:1 13827:1 14510:1 14531:1 
-0.1864216432994312 0 1 1480:1 1979:1 3446:1 4424:1 8154:1 11794:1 12802:1 13827:1 14510:1 14531:1 
-0 0 1 1480:1 1979:1 3446:1 4424:1 8154:1 8948:1 11794:1 12802:1 13827:1 14510:1 14531:1 
-0 0 1 1480:1 1979:1 3446:1 4424:1 8154:1 8948:1 11794:1 12802:1 13827:1 14510:1 14531:1 
-0 0 1 1480:1 1979:1 3446:1 4424:1 8154:1 8948:1 11794:1 12802:1 13827:1 14510:1 14531:1 
-0 0.0550721513402423 0.04075183520282134 1491:1 7076:1 9473:1 10459:1 12865:1 
-0 0 1 1480:1 1979:1 3446:1 4424:1 8154:1 8948:1 11794:1 12802:1 13827:1 14510:1 14531:1 
-0.4870468723769183 0 0.9998041482942616 1480:1 1979:1 3446:1 4424:1 8154:1 8948:1 11794:1 12802:1 13827:1 14510:1 14531:1 
-0.5015357906121058 1 0.9776655376518426 7187:1 8396:1 8464:1 13827:1 
-0.3134777307252691 0 0 4551:1 7346:1 11484:1 13331:1 
-0 0.8377913887676638 1 8739:1 12848:1 13827:1 
-0 0 0.7662263745043749 232:1 4428:1 12276:1 13084:1 14467:1 
-0 0.8678553938949085 1 1979:1 14459:1 
-1 1 1 1175:1 10710:1 12735:1 13703:1 
-0 0.4737292936314881 0 834:1 1542:1 4600:1 4847:1 9875:1 
-0.1300179765781445 0 1 2736:1 4154:1 10258:1 13827:1 14512:1 
-0.0298792404864569 0.0846047591295164 0 3673:1 6753:1 13195:1 13703:1 13813:1 
-0.5956096819617639 1 1 5121:1 8861:1 10258:1 13827:1 
-0.09603063149482238 1 0.9541338138777663 1590:1 7199:1 9968:1 13827:1 14475:1 
-1 0.1303162089530762 0 3446:1 8154:1 12251:1 13028:1 13256:1 13703:1 
-0.2884314249112525 0 0 3917:1 7184:1 
-0 0 1 7076:1 
-0.3845955324579601 1 0.5021914214857515 1078:1 5546:1 8112:1 12579:1 
-0 1 1 834:1 1806:1 7235:1 
-0 0 0.326137488004317 834:1 3446:1 8978:1 9985:1 10689:1 
-0 1 1 834:1 1643:1 3446:1 7281:1 9985:1 14297:1 
-0 0 0.282660230072702 834:1 2934:1 3446:1 4711:1 8194:1 10533:1 10762:1 
-0 0 0.3224537813083234 834:1 2934:1 3446:1 10533:1 10762:1 12474:1 
-0 0.1238701122504786 0 834:1 3177:1 3446:1 9985:1 10689:1 11850:1 12996:1 13329:1 
-0.0301916634759965 0.4318898484024355 0 834:1 3446:1 3771:1 10353:1 10689:1 11850:1 12996:1 
-0 0.4516531549998618 0 834:1 2995:1 3446:1 6367:1 7296:1 7724:1 8740:1 9816:1 10689:1 10913:1 11850:1 12114:1 12996:1 14235:1 
-0 0.4473003041766826 0.2073788212623255 834:1 3446:1 6688:1 7296:1 9567:1 10689:1 11850:1 12114:1 12996:1 14235:1 
-0 0 0.05909582223603552 641:1 834:1 3446:1 10689:1 11850:1 12996:1 13396:1 
-0 0.2258694439240643 0.2152330654404392 768:1 834:1 3446:1 6295:1 9892:1 11046:1 13829:1 
-0 0 1 834:1 3446:1 6489:1 7235:1 10288:1 10689:1 11850:1 12996:1 13851:1 
-0 1 0 834:1 3446:1 10689:1 11850:1 12674:1 12996:1 13851:1 14492:1 
-0 0 0.3567427971986988 834:1 1795:1 3446:1 5354:1 7281:1 10288:1 13851:1 
-0.08167324545294791 0 0.528251092610701 834:1 3446:1 4815:1 7235:1 10288:1 13851:1 
-0 1 0 834:1 3446:1 7235:1 9206:1 10288:1 12199:1 13851:1 
-0 0 1 834:1 3446:1 6771:1 7235:1 10288:1 13851:1 
-0 0.6612691580213356 0.5283556500488614 834:1 3446:1 7235:1 10288:1 13579:1 13851:1 
-0 0.6816335049907225 0 834:1 855:1 3446:1 7235:1 10288:1 13851:1 
-0 0 0.1655512080771998 834:1 3446:1 3625:1 4551:1 5980:1 10288:1 13851:1 
-0 0 1 834:1 3446:1 8453:1 
-0 0 1 834:1 3446:1 10689:1 11850:1 12996:1 
-0 0 0.8711520182162692 800:1 2487:1 3446:1 8453:1 8748:1 8749:1 
-0.2936332812557712 0.4945423500567248 0.253100839982673 3446:1 7235:1 7550:1 11077:1 11188:1 
-0.142433162306486 0.2745003158096647 0.109540262649813 834:1 1643:1 3446:1 5949:1 8422:1 8858:1 12502:1 13560:1 
-0.1478486064043128 0 0 834:1 1256:1 3446:1 4197:1 5645:1 6106:1 8154:1 8492:1 10689:1 11016:1 11850:1 12996:1 
-0 0 1 3446:1 3625:1 7235:1 10288:1 13851:1 
-0.6400295153067143 0.5334968925758694 0.9593164290479774 9350:1 11532:1 13703:1 13827:1 
-0.04703047906000631 1 1 1175:1 12149:1 13827:1 
-0 1 0.5434300403798074 140:1 7296:1 8640:1 10699:1 13827:1 13829:1 
-0.7388116687214072 1 1 7184:1 10429:1 13084:1 13827:1 
-0 0.7642463686319901 0.06179521458064761 2468:1 10258:1 12560:1 13827:1 
-0 1 1 140:1 10258:1 12560:1 13827:1 
-0.8280796818468187 0.831641497786024 1 2018:1 5754:1 11745:1 13256:1 13827:1 14531:1 
-0 1 1 5754:1 7296:1 13827:1 14531:1 
-0 1 0 150:1 2878:1 5754:1 6196:1 10258:1 13827:1 13829:1 14531:1 
-0.200035616303065 1 1 2929:1 5754:1 10258:1 11473:1 13827:1 14531:1 
-0.1326078355193712 1 0.5481638102350417 5754:1 12006:1 13827:1 14531:1 
-0 0 0.5704155761191156 3754:1 5754:1 13827:1 14531:1 
-0 0.04765817037313595 0 1245:1 5754:1 7465:1 13399:1 13827:1 14531:1 
-0 1 1 2977:1 5754:1 8461:1 11042:1 11541:1 11881:1 12096:1 13827:1 14531:1 
-0.3556748589459606 1 0 1387:1 3185:1 7184:1 8783:1 10258:1 11473:1 13399:1 13827:1 
-0 1 1 1282:1 10746:1 11473:1 11918:1 13458:1 13827:1 
-0.9502832802225716 0 0.993665989860797 8839:1 13827:1 
-0.7735216549762243 1 0.6019810835038341 2409:1 6037:1 6466:1 6601:1 7581:1 10258:1 13827:1 
-0 1 0.8640986461929325 1357:1 7236:1 11044:1 13827:1 
-0.09244276494875166 0.3845696840486862 0.9339417468570991 3052:1 6971:1 8461:1 11541:1 11881:1 13412:1 13827:1 
-0.1716341623371286 1 1 6122:1 11034:1 13003:1 13827:1 
-0 1 0.03779590698902544 2409:1 6466:1 6601:1 7581:1 10258:1 13827:1 
-0.6347506661121398 1 0.4592129817925564 8154:1 12300:1 12515:1 12778:1 12909:1 13827:1 
-0.1572616346050304 1 1 1884:1 6423:1 11407:1 12888:1 13827:1 14261:1 
-0 0 1 5396:1 10081:1 10258:1 11410:1 13827:1 14510:1 
-0 1 1 1172:1 1979:1 2365:1 13827:1 
-0.04851477664431879 1 1 1801:1 8113:1 10363:1 13827:1 
-0 1 1 140:1 7196:1 8640:1 10699:1 13827:1 
-0 0 1 3908:1 7235:1 10288:1 10352:1 11977:1 13827:1 
-0 0.740113742659553 0.7376161338314667 331:1 4787:1 10258:1 12836:1 13458:1 13827:1 
-0 0.8941815755513193 0 1795:1 1874:1 3723:1 4282:1 7291:1 10258:1 10629:1 12560:1 13827:1 
-0.1282527476883215 0.1597268388130152 0 3433:1 5437:1 8250:1 11139:1 12674:1 13827:1 
-0 1 1 10258:1 11977:1 13827:1 
-0 0 0.07041158145751428 1387:1 3185:1 10258:1 11005:1 13827:1 14099:1 
-0.05900113327207051 0.1923605119094033 1 1387:1 3185:1 10258:1 11005:1 13827:1 14099:1 
-0 0.5449974724926221 0.02476636127309083 768:1 3646:1 5668:1 8839:1 12257:1 13549:1 13827:1 
-1 1 1 
-1 1 1 12149:1 13827:1 
-0 1 0.1299011800027847 1669:1 4847:1 6735:1 13827:1 14492:1 
-0 0 0.8563586370852293 1421:1 6389:1 
-0 0.7147385200989833 0.8569182372647369 913:1 2523:1 4388:1 11500:1 
-0.2881089041704659 0 1 574:1 9550:1 
-0 0 1 13703:1 
-0 1 1 10258:1 13827:1 
-0.8754379150741242 0.4079705052288299 0.05036621890524118 3446:1 3964:1 4711:1 7235:1 7537:1 10288:1 10867:1 11977:1 
-0 0 0.6662796505628849 140:1 2878:1 8724:1 9185:1 
-1 1 1 
-0 0 1 10258:1 13560:1 13827:1 14362:1 
-0 1 0.2004594549851657 1590:1 3446:1 10699:1 11410:1 11963:1 13827:1 14531:1 
-0 0.7113966258971248 1 10258:1 13560:1 13827:1 14362:1 
-0.07510825087987627 0.2220579763419984 1 10851:1 
-0.3856338515149433 1 1 11977:1 13761:1 13827:1 
-0 1 0 5799:1 6323:1 9629:1 11977:1 13761:1 13827:1 
-0 1 0.9689622886271184 5799:1 6323:1 9629:1 11977:1 13761:1 13827:1 
-0 1 1 3912:1 5799:1 8322:1 9629:1 13761:1 
-1 0 0.8379028000440085 8248:1 8740:1 13402:1 
-0 0 1 834:1 
-0 0.08428859247907615 1 1153:1 7235:1 9655:1 10234:1 10288:1 
-0 0 0.924820478620533 2799:1 9655:1 11083:1 11298:1 14314:1 
-0 0.9104875765735976 1 1383:1 7235:1 9655:1 10288:1 13483:1 
-0 0 1 7235:1 9655:1 10288:1 
-0.1065956582246509 0 0.2759367615170377 1784:1 4817:1 7171:1 11702:1 11918:1 13402:1 13703:1 13949:1 14412:1 
-0.4432844863143449 0 0.03732333925209466 2078:1 12222:1 13620:1 13703:1 14165:1 
-0 0 0.1222782862470318 4335:1 6438:1 6653:1 7076:1 10436:1 
-0 0.4279501632294432 0 2335:1 5668:1 5731:1 6399:1 7503:1 8043:1 9720:1 9978:1 13256:1 13703:1 
-0 0 1 4232:1 7076:1 9350:1 
-0.4723539469236655 0 0 550:1 10222:1 12358:1 13037:1 13157:1 14546:1 
-0 0 0.626306505982663 7076:1 14097:1 14161:1 
-0 1 1 11245:1 12242:1 13256:1 13703:1 
-0 0 1 7076:1 
-0 0.9788428906188362 0 477:1 1152:1 3433:1 7235:1 10234:1 10288:1 10528:1 11977:1 13827:1 
-0 0.5492880612611436 0 2279:1 3745:1 7235:1 10288:1 
-0 0.6574348867718949 0 2279:1 3745:1 7235:1 10288:1 
-0 0.6731809327812165 0 1078:1 1152:1 1900:1 3912:1 7235:1 10288:1 11554:1 13270:1 
-0 0 1 7076:1 
-1 0.3074710127340829 1 834:1 11262:1 
-0.9683621194339722 0 1 834:1 3446:1 4787:1 13703:1 13827:1 
-0 0.6234544561474521 1 834:1 3446:1 4197:1 
-0 0 1 834:1 3446:1 
-0 0 1 834:1 3446:1 10689:1 11850:1 12996:1 
-0.3166315877169956 0 0 834:1 845:1 7869:1 8003:1 8827:1 9978:1 
-0 0 0.4786455082270097 834:1 2878:1 3446:1 7235:1 10288:1 12745:1 13851:1 
-0 0 1 834:1 10288:1 13851:1 
-0 1 0 834:1 6771:1 10689:1 11850:1 12996:1 
-0 1 1 834:1 5040:1 10288:1 13851:1 
-0 1 0.8047384588666955 834:1 3446:1 5940:1 7235:1 7291:1 10288:1 10689:1 11850:1 13851:1 
-0.05271671418022431 0 0.4446657248126356 477:1 834:1 10718:1 11977:1 
-0 1 0.5555444959253945 834:1 5731:1 7590:1 
-0 1 1 834:1 7235:1 
-0 0 1 834:1 6850:1 8899:1 
-0.03937296582165572 0 0.2725541571974961 343:1 834:1 1795:1 3214:1 3754:1 3871:1 7235:1 10363:1 11977:1 14081:1 
-0 0.3580475695588165 0 285:1 834:1 6048:1 7076:1 
-0 0 0.8322469748299738 834:1 7134:1 
-0 0 0.2259200388924006 834:1 3446:1 7235:1 8852:1 12351:1 
-0 1 0 834:1 1590:1 3446:1 10689:1 11850:1 12674:1 12996:1 
-0.368302339250096 0.8557271645659763 0.06404797390048794 834:1 2242:1 3074:1 7291:1 7779:1 8178:1 
-0.2031097496292401 0 0 834:1 3964:1 4711:1 5974:1 9213:1 
-0 0 0.4884065811310851 131:1 224:1 834:1 1175:1 5979:1 9213:1 
-0 0 0.8757983395958803 834:1 3621:1 7235:1 9625:1 10288:1 11070:1 13851:1 
-0 0 1 834:1 4968:1 6352:1 
-0 0.5083039510267352 0 834:1 3446:1 8978:1 14297:1 
-0 0.269488815145426 0 224:1 549:1 834:1 1403:1 2523:1 3805:1 9213:1 12166:1 12888:1 
-1 1 1 
-0 1 0 834:1 5763:1 10689:1 11850:1 12996:1 13851:1 
-0 1 0 834:1 3446:1 5763:1 10689:1 11850:1 12996:1 13851:1 
-0.4584243893179304 0.308296222828881 0 834:1 1893:1 8154:1 8412:1 8492:1 11977:1 
-0 0.1239160162427187 0 834:1 1184:1 2914:1 2975:1 5040:1 5358:1 6794:1 8839:1 11536:1 14600:1 
-0 0 1 834:1 4197:1 7779:1 12228:1 
-0 0.7181859819848424 0 834:1 3779:1 5256:1 6352:1 12228:1 
-0 1 0 834:1 3779:1 5256:1 6352:1 12228:1 
-0 1 0 834:1 3779:1 5256:1 6352:1 8031:1 12228:1 
-0 1 0 834:1 3446:1 12228:1 12883:1 
-0 1 0 834:1 872:1 12199:1 13851:1 
-0 0 0.3534270414140999 834:1 5380:1 8790:1 9213:1 
-0.01433898863106787 0.3651506634118334 0 834:1 9835:1 10718:1 13703:1 
-0 0.2709540771085508 0 834:1 3446:1 4787:1 7235:1 7807:1 9206:1 10234:1 
-0 0.04482188260822831 0 834:1 3112:1 3779:1 5256:1 6056:1 7370:1 
-0.113175328006251 0 0 386:1 800:1 834:1 3805:1 4997:1 8827:1 8952:1 12579:1 
-0.3555900343316835 0 0 834:1 1175:1 7716:1 8941:1 10123:1 11478:1 
-0 1 0 834:1 1790:1 2396:1 9985:1 10689:1 11850:1 12996:1 
-0 1 0 834:1 1790:1 3446:1 10689:1 11850:1 12996:1 
-0 0 0.3494958139907304 834:1 3779:1 5045:1 12550:1 13829:1 
-0 0 1 199:1 834:1 7267:1 9279:1 
-0 0.03836004189122063 0.5432644055132073 834:1 5256:1 7235:1 8154:1 10689:1 10745:1 
-1 1 1 
-0.7818526791077858 0 0.4513225394976599 8297:1 13618:1 
-0 0 1 3446:1 9792:1 
-0 0 1 10288:1 13851:1 
-0.7268185992906829 0.9616673797675566 0.2678380160968865 9213:1 9845:1 
-0 0 1 1421:1 10234:1 11977:1 12042:1 12836:1 13827:1 
-0 0.281398195391777 0 4743:1 4880:1 6019:1 6882:1 8915:1 11431:1 12291:1 13659:1 13703:1 14378:1 
-1 0 1 7301:1 13703:1 
-0 0.2413156077668355 0.2417089346929586 1282:1 7803:1 13703:1 
-0 0 1 11298:1 
-0 1 1 1175:1 5754:1 8257:1 9297:1 13827:1 
-0.7303741429677773 0.08634718930981594 1 1175:1 4183:1 9978:1 10273:1 
-0.4188825726772429 1 0 12883:1 
-0 1 1 4183:1 4272:1 4551:1 8257:1 9978:1 
-0 0.4452448346270148 0.5039976717783458 3330:1 5668:1 9978:1 11896:1 
-0.2946984795404384 0 0.1215343599710181 834:1 3446:1 4968:1 5427:1 7235:1 10949:1 11736:1 14546:1 
-0.03724909058087526 0 0 271:1 768:1 834:1 1807:1 2420:1 3405:1 10090:1 12621:1 13828:1 
-0.1550739102005337 0.3355706195931432 0 1152:1 2200:1 5339:1 7235:1 10288:1 12838:1 13352:1 
-0.1416158816010505 0 0.01511531367725965 2155:1 2643:1 4154:1 6842:1 7076:1 8735:1 13047:1 13270:1 
-0.2485178644537088 0 0 8250:1 12832:1 13444:1 13729:1 
-0 1 1 858:1 5748:1 9579:1 9978:1 13703:1 
-1 0 1 4384:1 
-0 0 1 1359:1 1881:1 10672:1 11247:1 13703:1 
-0.8511483303940386 0.2052845280760365 0 3036:1 6609:1 7378:1 8250:1 13739:1 
-0.6934944515200907 0.926174787825612 0.692143033914738 314:1 8588:1 10699:1 11977:1 13827:1 
-0 1 1 4659:1 9724:1 10258:1 11977:1 13827:1 
-1 0.9776859108581192 0.6125152812711689 4344:1 5981:1 9665:1 
-0.03179849225572608 0 0 3211:1 3840:1 7076:1 
-0 1 1 4183:1 12176:1 12208:1 14261:1 
-0 0.3013625271511005 0.2475560046508863 1568:1 2911:1 3405:1 8693:1 11473:1 12143:1 13703:1 
-0 0.5109320195024122 0.1708612527044282 3155:1 5130:1 10068:1 13703:1 
-0 0.5086994808566189 1 3177:1 13703:1 14261:1 
-0 0.07441026801331851 0.3680471687292708 1805:1 3177:1 4179:1 8529:1 12208:1 13703:1 13792:1 14261:1 
-1 1 1 7391:1 
-0 0.7113069493527872 0.6441366371542174 3634:1 3657:1 4684:1 8948:1 10200:1 12768:1 
-0.05544526350262918 1 1 3446:1 9473:1 10258:1 
-0.5755582208200617 0.02030751744055204 0.1880770863986053 845:1 3805:1 6143:1 9130:1 13703:1 14588:1 
-0.03164608901845576 1 1 834:1 5358:1 
-0.3250536986935681 0.03736694810787727 0 1979:1 2089:1 2829:1 6000:1 7076:1 10663:1 12837:1 13593:1 14591:1 
-0.06629368897878744 0.1945757887009686 1 345:1 724:1 834:1 4183:1 11245:1 
-0 0 1 13703:1 
-0 0 1 13703:1 
-0 0.152743166269566 0.2041731673747754 2878:1 4684:1 5184:1 8043:1 9579:1 9978:1 13703:1 14297:1 14611:1 
-0 0.3110747256698344 0 8925:1 9978:1 10913:1 13256:1 13703:1 14492:1 
-0 0.8788900332746478 0.4128668471056618 1643:1 2708:1 6461:1 8043:1 9978:1 13256:1 13703:1 14492:1 
-0.5196515274998547 0 0 834:1 5367:1 9978:1 12028:1 12420:1 13352:1 13703:1 
-0 0.8859877614722897 0.02278501897727145 1412:1 4765:1 6936:1 9978:1 13703:1 
-0 0 0.009542820614272706 9511:1 9978:1 12464:1 12997:1 13703:1 
-0 0 0.2626582236483935 5761:1 8569:1 9978:1 10672:1 13703:1 
-0 0.3514672214432385 0 6801:1 7929:1 8729:1 9978:1 12096:1 13256:1 13703:1 
-0 0 1 8031:1 9978:1 13703:1 
-0.5129597332262895 0 0 858:1 2882:1 8948:1 9206:1 13703:1 
-0 0.2180947730865671 0.4830860654800876 4356:1 6653:1 8157:1 9166:1 10733:1 10987:1 13703:1 
-0 0 0.168071303470345 1421:1 11607:1 13703:1 
-0 0.2496506797373422 0 2314:1 12883:1 13703:1 
-0.6268923650157756 1 0 9213:1 9415:1 13703:1 
-0 0.09267190178836913 0.31228252201945 2106:1 6959:1 10258:1 13703:1 
-0 1 1 2106:1 6959:1 10258:1 13703:1 
-0 0 0.4654041709802527 2882:1 5103:1 6850:1 8663:1 13703:1 
-1 1 1 3840:1 13703:1 
-0 0 0.006518099871697235 1804:1 1952:1 2591:1 4551:1 4743:1 5897:1 9331:1 12833:1 13703:1 
-0.4847307428596546 0.05814362508826858 0 8154:1 8978:1 12651:1 13256:1 13703:1 
-0.2992844924318745 0.196937066557618 1 4275:1 4997:1 10551:1 13703:1 
-0.09416638352694216 0.4989967819615578 0.3332443931861735 1590:1 1952:1 2426:1 10137:1 13427:1 13703:1 14246:1 
-0 0 1 11794:1 13703:1 
-0 0.07610516903899375 0 6592:1 10205:1 13703:1 14000:1 14297:1 
-0.0002521278528692717 0 0 1819:1 10353:1 11473:1 13703:1 
-0.04312067957318767 0 0 2169:1 3625:1 8925:1 10353:1 13703:1 
-0.05122139209145447 0 0 10353:1 13703:1 
-0.2318699405282837 0 0.4093718616733649 2169:1 4696:1 8925:1 9130:1 13226:1 13703:1 
-0.1023404957200095 0.08035084076703493 0.1231031867651724 1550:1 1904:1 3310:1 8511:1 13599:1 13703:1 
-0 0.1354366161598166 0.8475623216624253 451:1 5707:1 8899:1 13703:1 
-0.2086081645556104 0.07664446063412032 0 260:1 477:1 2725:1 7309:1 8693:1 13703:1 
-0 0 0.3096366669488402 2046:1 3789:1 5256:1 8096:1 13169:1 13703:1 
-0 0.1238189603113534 0 1979:1 2046:1 3045:1 3789:1 5256:1 8096:1 13169:1 13703:1 
-0 0.9324641094787253 0.1455366918569286 4428:1 4711:1 5538:1 5754:1 12149:1 13703:1 13948:1 
-0 0.3407359962827419 1 11052:1 12865:1 13256:1 13703:1 
-0.2154819722636369 0 0 1421:1 2440:1 7236:1 11918:1 13703:1 13797:1 
-0.4602443112100053 0.8069646618027515 0.9949672381870347 1357:1 2471:1 8272:1 10127:1 13703:1 
-0.2858964704706044 0 0.8917146388699224 2187:1 3617:1 11081:1 13035:1 13307:1 13703:1 
-0 0.9624943747655921 0 3657:1 5359:1 8740:1 9213:1 13703:1 
-0 0 0.1353985276669965 1421:1 4743:1 10165:1 12192:1 13703:1 
-0 1 0.7245740209955406 7868:1 8899:1 12351:1 13703:1 
-0 0.01751239390444977 0.4151474717021944 11745:1 12432:1 13612:1 13703:1 
-0.1768765449606087 1 1 5359:1 8740:1 12991:1 13256:1 13703:1 
-0 0.690457955750328 0 4711:1 8571:1 9213:1 13703:1 
-0.1952388179866174 0 1 215:1 13256:1 13402:1 13703:1 
-0 0.3122159278620931 0 1272:1 9155:1 9213:1 13703:1 
-0 0.9206916478553261 0.9520177605761762 8157:1 13703:1 13761:1 14492:1 
-0 0.01292132939977557 0 4272:1 13703:1 
-0 0 0.6583278757638126 3502:1 5130:1 13703:1 
-0 0.7927910049693636 0.9747232681449199 3502:1 5130:1 13703:1 
-0.08739985815206285 0 0 2934:1 5229:1 6959:1 8740:1 13703:1 
-0 1 0.6446147270421092 2645:1 13703:1 14207:1 
-0.02875768647256774 0.07401216690781239 0.109458509348218 2396:1 6137:1 6143:1 8043:1 13703:1 
-0.3744432749822537 1 1 5396:1 7199:1 8396:1 8915:1 12042:1 12176:1 12251:1 13703:1 
-0 0.3125033269092802 0.4172870344842812 2647:1 3374:1 4684:1 4880:1 7387:1 8899:1 13703:1 
-0 0.1470317028202577 0 2047:1 4922:1 10081:1 13703:1 
-0.2239290190252549 0.1440702626502602 0 834:1 1881:1 4852:1 12452:1 13703:1 
-0 0.2651013271622422 0.165438078316131 4633:1 7367:1 8978:1 9058:1 9965:1 13256:1 13703:1 
-0 0.7447293782719696 0 4311:1 12553:1 13703:1 
-0 0 0.09267091599708917 1944:1 3446:1 7581:1 11561:1 13256:1 13703:1 14116:1 
-0.0987982207309429 0 0 2080:1 2187:1 3026:1 5359:1 7367:1 10020:1 12859:1 13703:1 
-0.8031822930877188 0 0 5229:1 6959:1 8740:1 13703:1 
-0 0.6263212123541898 0.1427847530722473 2784:1 5754:1 11918:1 13703:1 
-0.01754221050797732 0.1033095158030245 0.9915436040110496 1804:1 1900:1 2181:1 11486:1 13703:1 
-0.2718208428503301 0 1 266:1 5836:1 10596:1 12814:1 13703:1 
-0.5305203854548596 0.5482804134356336 0 2187:1 2383:1 2911:1 5747:1 5763:1 9350:1 12883:1 13649:1 13703:1 14510:1 
-0 0 0.2244743533782707 1528:1 1979:1 7848:1 10698:1 13703:1 
-0 0.7698578151134328 0.8364280393367487 11933:1 13703:1 13797:1 
-0 1 0.4521693786043959 4384:1 8915:1 13703:1 
-0 0 1 845:1 9656:1 13703:1 
-0 0.2747876274433705 0.6917921154306726 2249:1 4519:1 8925:1 11367:1 13256:1 13703:1 14600:1 
-0.4006482094833113 0.2892516420763443 0.4730386258552466 1421:1 5553:1 13703:1 14000:1 
-0 0 0.3535579356552661 1216:1 2878:1 5256:1 6323:1 8224:1 8252:1 13703:1 
-0 0 1 834:1 1833:1 2911:1 3446:1 11407:1 12224:1 13703:1 13717:1 13827:1 
-0 0.8745740409817897 1 1184:1 2396:1 3807:1 8700:1 
-0 0.6454089553983235 0 1357:1 6580:1 9978:1 
-0 0 1 5427:1 8852:1 8925:1 
-0.0649385927661747 0 0 1979:1 3446:1 3745:1 12135:1 14093:1 
-0 0.03416367275264259 0 3446:1 3745:1 3807:1 4494:1 6592:1 9102:1 9938:1 13256:1 
-0 0 1 834:1 
-0.8335839952406495 0.4210961231707412 0 3446:1 4692:1 13427:1 
-0 0.9946255190792844 0 2934:1 2935:1 5437:1 8925:1 9978:1 13256:1 14546:1 
-0 0.0134093588255181 1 724:1 4551:1 5707:1 
-0 1 1 150:1 4784:1 5130:1 8899:1 
-0.3441612753108296 1 0.5739724651046234 260:1 872:1 1643:1 2281:1 2523:1 3446:1 10699:1 13256:1 
-0.6535765479891256 0 0 3446:1 3745:1 12007:1 13717:1 
-0.4413406517391433 0 0.5197942612994183 3446:1 12007:1 13717:1 
-1 0 1 7301:1 8043:1 10823:1 13703:1 
-0.1732166954967673 1 0.5662709269439806 385:1 4443:1 5406:1 
-0 0.6134426073543813 0.4716690651146186 2431:1 3912:1 4344:1 5233:1 7230:1 9665:1 11486:1 
-0 0.04699480739720437 1 2878:1 3912:1 6376:1 9965:1 12676:1 
-0 1 1 343:1 8117:1 8396:1 10258:1 10699:1 11473:1 13827:1 13829:1 
-0 1 1 8396:1 10699:1 11473:1 11977:1 13827:1 13829:1 
-0 0.04316358550858179 0.0709042404119105 3446:1 4448:1 4707:1 5457:1 6592:1 13703:1 
-0.3457319749540848 0 0.163056961944773 473:1 8154:1 13256:1 13703:1 
-1 1 1 
-0 0 1 1979:1 13703:1 
-0 0 0.1385356004940374 4577:1 9623:1 13703:1 
-0.3040367427354106 0.7857870344534399 0.2871092696865698 2932:1 5362:1 5518:1 6428:1 9182:1 12471:1 13948:1 
-0.1716654962841593 0.01008510172653852 0 834:1 2804:1 3433:1 4297:1 7235:1 10764:1 13703:1 13827:1 
-0 0 0.08735461662619186 834:1 1797:1 4986:1 10698:1 12795:1 13984:1 
-0 1 1 2396:1 5819:1 13827:1 
-0.0728313437451248 0 1 861:1 2023:1 4189:1 
-0.0750312834330962 1 1 10968:1 
-0.4038610689701863 1 1 7184:1 7462:1 7641:1 10429:1 12782:1 13507:1 13827:1 
-0 0.7658422931463378 0 1520:1 1810:1 5437:1 6756:1 7076:1 9350:1 
-0 0 0.006541094193335303 514:1 3625:1 7076:1 7230:1 8466:1 10381:1 12802:1 
-0 0.5450543523912696 0.8130803247643068 2523:1 7076:1 8031:1 9656:1 12579:1 
-0.5062101184342546 1 1 468:1 1316:1 2023:1 5130:1 7199:1 9656:1 13827:1 14203:1 
-0.06580126560740523 0 0 2882:1 10812:1 13703:1 
-0.09078417318823945 0.3994050652307616 0.1692711532794959 834:1 2770:1 5789:1 8394:1 9350:1 12768:1 13703:1 
-0.6442680523966093 1 1 5396:1 7977:1 14261:1 
-0 0.7257386039795135 0.29938698361529 531:1 834:1 933:1 7235:1 11794:1 13498:1 
-0 1 1 834:1 7235:1 13851:1 
-0.7042821643432524 0.2837013211432373 0 834:1 1810:1 6974:1 7235:1 8154:1 8555:1 8739:1 10205:1 11920:1 13827:1 
-1 1 1 7235:1 11473:1 
-0.01383015433721278 0.2738882627269502 1 4829:1 7171:1 7235:1 
-0 1 0 3446:1 5731:1 7235:1 10689:1 11850:1 12996:1 
-0.05221008115246772 1 0.567200440665181 1152:1 7235:1 8700:1 9719:1 10288:1 11514:1 13483:1 14099:1 
-0 0 1 834:1 3446:1 7235:1 10288:1 13851:1 
-0 1 0.1210374730350384 1142:1 3446:1 7235:1 10234:1 10288:1 10689:1 11850:1 12996:1 13851:1 
-0 0.3037296891019327 0 834:1 4295:1 5754:1 7235:1 10288:1 13851:1 
-0 0 1 1088:1 7235:1 7875:1 10288:1 
-0 0 1 426:1 7235:1 10746:1 
-0 1 0.0597855990600297 834:1 3446:1 3560:1 10689:1 12996:1 
-0 0 1 834:1 3446:1 
-0 0 1 834:1 3446:1 
-0 0 1 834:1 3446:1 4968:1 
-0 0 1 834:1 3446:1 
-0 0 0.1351530104662161 2031:1 3187:1 3605:1 4864:1 
-0.387724710664785 0.4835058183796394 0 768:1 1451:1 2940:1 5188:1 5256:1 11615:1 
-0 0.4845029077794661 1 834:1 6850:1 11245:1 11305:1 
-0 0 1 834:1 2862:1 5427:1 6850:1 
-0 0 0.3149022365927248 105:1 834:1 2159:1 2647:1 4183:1 6850:1 9824:1 12271:1 
-0 0 0.155715663530239 834:1 1403:1 4132:1 5030:1 6850:1 7031:1 
-0 0 0.3242252187118762 834:1 975:1 2911:1 6850:1 7234:1 
-0 0 0.007322339659530929 834:1 1403:1 2911:1 3634:1 4094:1 9713:1 
-0.009239671857765386 0 0.3379554539093586 687:1 6435:1 9845:1 10152:1 12550:1 12814:1 12980:1 13703:1 13838:1 14210:1 
-0.369958044748788 0 0 6753:1 8990:1 
-0 0.1273855887023811 0.09398470898723728 297:1 908:1 1202:1 2878:1 6316:1 9845:1 11446:1 11541:1 11686:1 13242:1 
-0.1046474883092715 0.2252367552821557 0.01425724686755674 280:1 343:1 4910:1 5669:1 5784:1 6870:1 7633:1 8778:1 9814:1 12509:1 13703:1 13827:1 
-0.384975813022675 0 0 2940:1 4328:1 5427:1 8274:1 13610:1 14065:1 14265:1 14602:1 
-0.6361585137621949 0.09727020494869036 0 2940:1 3237:1 6580:1 7368:1 8154:1 10127:1 10541:1 11361:1 
-0.5932081985108323 0 0 834:1 3964:1 9350:1 12748:1 13758:1 
-0 0.4617551499412783 1 3912:1 13867:1 
-0 1 1 3912:1 
-0.00633737383186862 1 1 3912:1 
-0 0.2803971928365896 0.1712423302260841 1968:1 3880:1 3912:1 4986:1 5103:1 11086:1 
-0.2847831249885334 1 0.4901790875415713 3912:1 5731:1 
-0.5766858702729805 0 0.4966505420218759 834:1 1383:1 3774:1 10973:1 13703:1 
-0 0 1 2023:1 2735:1 4428:1 12651:1 13827:1 
-0.1360184258940508 0.4036563693642436 0 1184:1 1453:1 8154:1 8252:1 8818:1 13256:1 13703:1 
-0 0 1 5646:1 7076:1 12802:1 
-0.04517135342071443 0.4573832960974852 0 3807:1 3860:1 8154:1 13256:1 13703:1 14286:1 14611:1 
-0 0.5855551201734932 0 1904:1 2047:1 5539:1 13399:1 13703:1 
-0 1 1 73:1 834:1 5040:1 7235:1 8031:1 12996:1 
-0 1 1 11794:1 11977:1 13827:1 14508:1 
-0 0 0.3090032859128472 7076:1 14069:1 
-0 0 0.2161502628665096 3446:1 7076:1 14371:1 
-0 1 1 7076:1 11918:1 
-0 0 1 7076:1 
-0 0 1 7076:1 
-0 0 1 7076:1 
-0 0 1 7076:1 
-0.4430971067794728 0.2177464696469439 0 787:1 1900:1 4310:1 7076:1 7571:1 11473:1 
-0 0 0.2593552958586823 1101:1 7076:1 11397:1 
-0 0.05506106983021855 0.9737402432432628 834:1 1798:1 1819:1 7076:1 7994:1 9213:1 
-0 0 1 7076:1 
-0 0 1 7076:1 
-0 0 1 7076:1 12802:1 
-0 0 0.08236441460743507 1675:1 7076:1 12802:1 
-0 0 0.0002283837417294254 554:1 7076:1 7156:1 
-0.1088176026791711 0.03645074936930523 0.1733452809939172 6054:1 7076:1 7428:1 12350:1 
-0 0 1 7076:1 8625:1 
-0.2986654188968147 0.06943944619087936 0 1078:1 4708:1 6201:1 7076:1 7716:1 7979:1 9642:1 10342:1 
-0 0 0.07867228414986821 6713:1 7076:1 8360:1 8891:1 
-0 0.8173296505718042 0 1979:1 2911:1 4183:1 7076:1 10698:1 10823:1 11245:1 11305:1 
-0 0.02652908211935411 0 768:1 2512:1 2802:1 5813:1 7076:1 
-0 0 1 7076:1 
-0 0 1 7076:1 
-0.861974911433116 0 0.1789786328386219 4828:1 7076:1 7230:1 8031:1 9396:1 13571:1 
-0 0 1 7076:1 
-0 0 1 7076:1 
-0 0 1 7076:1 
-0 0 1 7076:1 
-0 0 1 7076:1 
-0 0 1 7076:1 
-0 0 1 7076:1 
-0 0 1 1078:1 5695:1 7076:1 
-0 0 1 7076:1 
-0 0 1 7076:1 
-0 0 1 7076:1 
-0 0 1 7076:1 
-0 0 0.2335347854152466 451:1 1942:1 5432:1 7076:1 7224:1 11943:1 
-0 0 1 7076:1 
-0 0.08520270996788225 0 3733:1 7076:1 14371:1 
-1 0.4878469952805178 0.5754745885786301 4684:1 6885:1 7076:1 
-0.386821600330411 0.1001882595859191 1 10046:1 10653:1 
-1 1 1 
-1 1 1 
-0.4505747681062798 0.4537756763431632 0.23941253929205 7643:1 8152:1 
-0 0 1 7076:1 
-1 1 1 
-1 1 1 
-1 1 1 
-1 1 1 
-1 1 1 
-0.272791960357527 0.002001126272794881 0.2760692684963167 6909:1 7235:1 14492:1 
-0.4190907439901667 0 0.1388523423199862 1795:1 2669:1 7076:1 10818:1 10830:1 11977:1 
-0.1300145960992555 0.4583595117458101 1 3912:1 5233:1 10436:1 
-0.6191432188086325 0.7133013138221969 1 3912:1 5233:1 11004:1 13949:1 
-0.05654156346031112 0.9380931508564712 0.6504056201578725 1293:1 5130:1 5359:1 11081:1 13035:1 13703:1 
-0.07613956443867889 0.2379225853657264 0.1827767215508257 1669:1 2281:1 4841:1 6220:1 9455:1 12120:1 12945:1 
-0.1136185900434521 0 0 2029:1 2521:1 2994:1 6490:1 7930:1 8715:1 9665:1 10161:1 13703:1 13912:1 
-0.1496485208281902 0.8982245533331193 1 1979:1 3646:1 5389:1 13827:1 
-0 0.6798951829369854 1 7994:1 13242:1 13703:1 
-0 1 0.2858774790981926 1245:1 2271:1 13827:1 
-0 0.8545337368571693 1 4418:1 11139:1 12949:1 
-0 1 1 1245:1 2271:1 13827:1 
-0.5873138580267165 0.5348130708541025 1 9610:1 10429:1 11977:1 13827:1 
-1 1 1 10203:1 
-0.1397633987737446 0.05627398892765815 1 2271:1 5629:1 13703:1 
-0.07071241357765048 0 0 3773:1 6699:1 10894:1 11153:1 13703:1 
-0 1 0 768:1 2940:1 4863:1 5241:1 7368:1 8360:1 11331:1 13827:1 
-0.4733386136328113 0 0 4787:1 7677:1 8516:1 8992:1 9978:1 13483:1 13703:1 14458:1 
-0.08315200123968836 0 0 1245:1 7520:1 8765:1 10289:1 10438:1 12480:1 14239:1 
-0 0 0.128037828816147 324:1 708:1 1091:1 3433:1 3822:1 7076:1 
-0 0 0.3088397181184611 1444:1 7076:1 
-0 0.1686451444360185 0.04145996679270001 479:1 3860:1 8621:1 11331:1 11406:1 11846:1 12251:1 14261:1 14291:1 
-1 1 1 
-0.08080940796002407 0 0.7635726778087091 834:1 5427:1 10057:1 
-0.303717115216398 0.6116582054658907 0.1992057781275383 1554:1 4915:1 7076:1 9297:1 9350:1 
-0.5152126032478825 0.853517400019925 0 7076:1 8404:1 10932:1 12881:1 14196:1 
-0.8382885613403521 1 0.2939090677034644 1798:1 2940:1 8856:1 9799:1 11331:1 
-0 0.002264194356654494 1 834:1 
-0 0.09244829679004754 0 259:1 4328:1 4344:1 5184:1 5784:1 5981:1 8252:1 8388:1 8899:1 13402:1 13703:1 13762:1 
-0 0.03224855053095714 0.188591873549373 834:1 3446:1 4708:1 7281:1 13767:1 
-0.1926303056904 0 0 830:1 1846:1 2233:1 3850:1 5404:1 7076:1 9330:1 11515:1 13046:1 
-0.5430734350116994 0 0 1098:1 2940:1 7520:1 8154:1 11961:1 13898:1 
-1 1 1 
-0 0 0.2715184313482544 1503:1 8031:1 9814:1 10765:1 11453:1 13717:1 
-0 0 0.7817416375418423 2940:1 
-0 0.3225194620100987 1 3352:1 3872:1 6106:1 10429:1 11477:1 14256:1 
-0 0.05561784134169958 0 8250:1 8731:1 9229:1 11569:1 12754:1 
-0.1904700537450954 0 0.1313674112334389 477:1 639:1 768:1 5251:1 6777:1 6870:1 7302:1 7444:1 9478:1 9707:1 10381:1 14200:1 
-0 0.2035443333744993 1 5819:1 10672:1 13829:1 
-0.3534661732560878 0 0.214620044336736 1503:1 4864:1 5153:1 12391:1 13717:1 13758:1 
-0 0 1 5819:1 10867:1 11977:1 
-0 0.4657654163485134 1 2940:1 
-0.2966676986189241 0 0 4788:1 5258:1 5645:1 7034:1 7076:1 
-0.0751995389726563 0.2221320671788794 1 4959:1 
-0 0.1241891115744055 0.9175309110184466 6886:1 12981:1 
-0 1 0.06413304864071417 864:1 3570:1 9206:1 9758:1 10165:1 
-0 0 1 468:1 4275:1 5023:1 8394:1 11607:1 14378:1 
-1 1 1 1979:1 
-1 1 1 
-1 1 1 
-0.3289122075653458 0.1335204215651553 0.2957026483282736 343:1 2589:1 4841:1 5085:1 6223:1 14060:1 
-0.04565450794611336 0.1748788700673213 0.1902613645860366 1590:1 2359:1 4428:1 5229:1 5628:1 7060:1 12078:1 12537:1 13827:1 14297:1 
-0.03745837134388722 0.111166669300165 0.6372838663965703 9272:1 12002:1 
-0.2608061262050415 0.2536269637414025 0.4122327347860176 3229:1 5842:1 8451:1 8915:1 
-0.04323082196044032 0 0.01770060151746241 855:1 2042:1 6519:1 9665:1 9826:1 
-0 0.5581439062168991 1 5427:1 7994:1 12420:1 13520:1 
-0.1666727052637567 0 0 1503:1 1786:1 5359:1 6599:1 6756:1 7069:1 9185:1 9978:1 11862:1 13717:1 
-0.1793085730104787 0.3441263186969682 0 845:1 1103:1 2940:1 7368:1 7869:1 11904:1 11977:1 
-0 0.4180181658953275 1 1341:1 6360:1 6433:1 
-0.370727864326338 0.2538125820526083 0.5023182580013601 2963:1 3960:1 7160:1 13827:1 14291:1 
-0.5405801113657962 0.7920792077619192 0 2940:1 5761:1 9665:1 10987:1 11977:1 13829:1 
-0.4850812567509923 0.4899624624270386 0 631:1 845:1 1475:1 3872:1 8952:1 9665:1 10699:1 11977:1 
-0.8533234026776901 0 0 159:1 657:1 1403:1 5229:1 6006:1 6367:1 9665:1 10429:1 11451:1 13529:1 13892:1 
-0 0 0.8360028889550961 3502:1 4214:1 6995:1 11977:1 
-1 1 1 
-0.09530435990584396 0.2393506208194908 0 872:1 2940:1 6555:1 11977:1 12073:1 
-0 0.4849545718324814 0.07046666869937102 845:1 8446:1 10699:1 12192:1 12651:1 14356:1 
-0.7356027329155147 0 0 767:1 2040:1 5819:1 7724:1 11977:1 12328:1 13790:1 
-0 0.8713667953277012 0.6274195498405494 5819:1 10723:1 
-0.6350214254836347 0 0 4882:1 5819:1 8154:1 10276:1 11741:1 
-0 0.3562909757733734 0 477:1 667:1 1979:1 4037:1 6735:1 9277:1 10258:1 10724:1 
-0.117216303601664 0 0.1606366968733585 1142:1 2330:1 2632:1 3252:1 8343:1 10765:1 12120:1 12213:1 
-0.03748655177326816 0 0.6373618999875875 667:1 3131:1 
-0 0 0.5737037354671398 1710:1 1979:1 5080:1 10429:1 
-1 0.2420209090669537 0 982:1 1669:1 1934:1 8916:1 11977:1 
-0.2216878615181078 0.5168186954743821 0.2690078855945311 3287:1 6495:1 7513:1 7520:1 13620:1 13829:1 14549:1 
-0 0.8289071323126402 0.3147631137106059 468:1 595:1 3355:1 4078:1 4275:1 7779:1 9094:1 11762:1 11977:1 
-0 0.2818715219957481 0.6849357333419894 468:1 1979:1 5128:1 11271:1 
-0 0 0.141738302812265 925:1 3723:1 11416:1 11977:1 
-0 0 0.894698018254622 140:1 3908:1 6927:1 7230:1 9539:1 9758:1 
-0.2621015312303581 0.377019150034554 0.2321431883856619 1881:1 3700:1 5515:1 5739:1 
-0.07530274517215815 0.2220778965939039 1 11504:1 
-1 1 1 11977:1 
-0 0.07925303882388089 0 1475:1 1952:1 5277:1 6519:1 7069:1 8250:1 8941:1 11623:1 
-0 0 0.1717820551772565 1503:1 3502:1 11934:1 13717:1 
-1 0 1 873:1 11977:1 
-0 0.09000551858932385 0 60:1 140:1 1181:1 3415:1 7229:1 9968:1 11612:1 12114:1 
-0.3763776115215965 0.03778655903155386 0.4131382680690863 7647:1 9229:1 14531:1 
-0.199597435552944 0.2038940378312416 0 1936:1 5819:1 6386:1 7869:1 8250:1 9302:1 13829:1 
-0 0 1 7076:1 
-0 0 0.1685722422881759 834:1 1491:1 2589:1 5046:1 6974:1 7647:1 7944:1 7994:1 
-0 0.1345827228233756 0.2041706111645639 357:1 2799:1 10867:1 11977:1 12154:1 12420:1 
-0 0.31653407678935 0.3560951242430546 1004:1 1419:1 2005:1 2659:1 2739:1 5279:1 9779:1 9824:1 
-0 0.6094545156557971 0.9901246521869319 834:1 5358:1 8557:1 
-0.05005474621096796 0.2751506207588122 0.07068414918037619 5018:1 9058:1 10671:1 13631:1 
-0.1067185034665218 0.1632656457839219 0.4953805837098277 1810:1 8316:1 
-0.4008090710501591 0 0.2380748106504926 3840:1 6398:1 7076:1 8224:1 9918:1 
-0 0 0.1893174922499606 7226:1 7462:1 8003:1 10429:1 
-0.2767161867586331 1 1 733:1 9707:1 11977:1 13829:1 
-0 0 0.521891649779748 1833:1 2822:1 13703:1 
-1 1 1 11977:1 
-0.1774101047916186 0.7013367983025692 0 8194:1 10435:1 11977:1 14039:1 14531:1 
-0 0.380509115587967 0.1230932707744914 1810:1 2596:1 
-0 0 1 13703:1 
-0 0 0.9370092329365396 10351:1 12150:1 12208:1 13703:1 
-0 0.06126236834850225 0.4951520311408641 845:1 2883:1 3246:1 4600:1 10558:1 11625:1 
-1 0.5424299525453194 0.3569236008886755 476:1 2609:1 7235:1 7270:1 8154:1 
-1 1 1 
-0 0 1 2739:1 9978:1 12883:1 13256:1 
-0 0 1 2739:1 9978:1 12883:1 13256:1 
-0.6843628404396248 0 1 4910:1 13458:1 
-0.08860247936439079 0.1567128510874033 0.1086340048711959 83:1 162:1 2610:1 7441:1 8154:1 8783:1 9585:1 10902:1 
-0.5045529773192157 0.03382855066500407 0.007018783820150237 122:1 2698:1 2770:1 4612:1 6006:1 6646:1 10343:1 
-1 0 0.8799148363284028 550:1 7076:1 12510:1 
-0.3790094023125571 0 0 1206:1 3446:1 3670:1 8250:1 10757:1 10941:1 11794:1 12216:1 14005:1 
-0 0 0.005065049224406599 7076:1 9596:1 10458:1 
-0 0.5482134060387693 0.4211340548437323 2896:1 3799:1 4258:1 5460:1 6592:1 13703:1 
-0 0.6174868071236174 0 105:1 1669:1 2784:1 4213:1 9720:1 9792:1 11034:1 11918:1 13703:1 
-0.03776410020426654 0.2165807873284639 0.08964150680367877 1981:1 3502:1 5427:1 7142:1 8551:1 8716:1 9799:1 
-0.1707402833568268 0.2184852587762793 0 3211:1 3685:1 5358:1 7076:1 9274:1 10952:1 11569:1 
-0 0 0.3090224104560956 5778:1 7076:1 
-0.3078917226490635 1 0.1122864807609548 2426:1 5313:1 6885:1 14531:1 
-0 0 0.9553751048512318 834:1 9350:1 10734:1 11407:1 12624:1 13827:1 
-0.5656305697802975 0 1 9700:1 
-0.1126647103404005 0 0 2534:1 4821:1 7076:1 9217:1 
-0.02168453034392685 0 0.2727463861543317 92:1 834:1 4154:1 8925:1 11541:1 14192:1 
-0.6052729258530162 1 1 5242:1 10699:1 13829:1 
-0.121756615051843 0 0 4922:1 5314:1 5819:1 10989:1 12110:1 
-0 0 0.283842677794006 477:1 1979:1 4472:1 9438:1 
-0.07504556847245748 0.6764772439686297 0.7887041970975044 12648:1 
-0.04182349946751063 0 0.3302996262315619 370:1 395:1 505:1 1321:1 5427:1 5525:1 7076:1 
-0.1689586020324731 0 0.008389892408156858 3098:1 7076:1 9350:1 11835:1 
-0.6020524785206387 0.5942697135981112 1 5320:1 5420:1 11247:1 13703:1 13827:1 
-0.6863265673462904 0 0 531:1 6592:1 8154:1 8422:1 11046:1 13187:1 13703:1 
-0 0 0.1374857101407092 7015:1 13564:1 13703:1 
-0.07508444862962611 0 0.2745199776669752 9261:1 
-0 0.03413293332963689 0.1708486216797551 460:1 1366:1 1526:1 1807:1 4821:1 5900:1 7076:1 7716:1 8234:1 9028:1 11065:1 
-0 0.03407927482751421 0 3433:1 9148:1 
-0.5798921614971621 0.1971409424833306 1 3656:1 5754:1 7235:1 8154:1 13560:1 13827:1 
-0.5108667783083201 0.9985723960239927 0.8322109031706458 4037:1 4188:1 8167:1 9372:1 13827:1 13886:1 
-0 0 1 7076:1 
-0.1131645459976061 0 0 2151:1 4328:1 6438:1 7076:1 7580:1 8234:1 14546:1 
-0 0.07772475529291654 0 1078:1 5358:1 5404:1 7076:1 12120:1 
-1 1 0 631:1 5427:1 5981:1 8749:1 13649:1 13829:1 14531:1 
-0 0 0.1726707658078558 693:1 6822:1 8180:1 10663:1 11739:1 13703:1 
-0 0.1854035737634931 0 477:1 768:1 8422:1 9997:1 11163:1 11808:1 13085:1 
-1 1 1 
-0.4597866832066798 0.4297202197387748 0.006530167568026988 4243:1 5188:1 5248:1 7076:1 12877:1 
-1 0 0 856:1 2544:1 2934:1 8839:1 13886:1 
-0 0 0.2404503474832456 1503:1 2167:1 4188:1 5427:1 9346:1 10429:1 12036:1 13717:1 14467:1 
-0.1333751663511721 0.2479853794910576 0 834:1 2862:1 3745:1 4175:1 4543:1 6376:1 7724:1 11324:1 13256:1 13827:1 
-0.04975847329150833 0.1352431208940163 1 733:1 7710:1 10757:1 
-0 0.5784447944536789 0.2702539580009455 1078:1 1389:1 7076:1 11115:1 13641:1 
-0.5448085725357419 0 0 226:1 5747:1 7076:1 8487:1 9217:1 12888:1 
-0 0 0.4987325928598441 1078:1 4940:1 5427:1 7076:1 9665:1 12246:1 
-0.07511206170360596 0.2220939436187194 1 10614:1 
-0.8843832665353432 0.1724266743736197 0.1264618837771212 4882:1 5539:1 5741:1 8250:1 9817:1 10879:1 12651:1 
-0 0 1 7076:1 
-0.2308820956469579 0.01772149448984284 0.2184040781489786 54:1 1357:1 1419:1 1480:1 1795:1 1821:1 1869:1 4565:1 6304:1 6399:1 7530:1 
-0.009881164829600038 0.5364271435258594 0 1589:1 1881:1 4711:1 5571:1 6196:1 6801:1 12832:1 13321:1 13520:1 
-0 1 0 7076:1 8194:1 
-0.04196072633859192 0 0 834:1 6506:1 11794:1 14174:1 
-0 0.0001997406966235682 0.8325433950061596 834:1 8206:1 
-1 0 1 8852:1 13703:1 
-1 1 1 13827:1 
-0.6187903290463898 0 1 13703:1 
-0.09427828654550827 0 0 8167:1 8839:1 10840:1 13827:1 14239:1 
-1 0 1 13703:1 
-0 0 0.309003285912847 7076:1 13677:1 
-1 1 1 2523:1 7076:1 7572:1 13827:1 
-0 0.5219940714077519 0.09401672463973437 420:1 987:1 11534:1 13703:1 
-0 0 0.559825302826534 834:1 1795:1 3513:1 6201:1 7670:1 12086:1 
-1 0 1 13703:1 
-0 1 0 7076:1 11044:1 
-0.2467104102647695 0.3697552598593535 0.723471962682036 2395:1 7644:1 7869:1 8414:1 9828:1 11803:1 
-0 0.03470112904473403 0 482:1 768:1 2940:1 3773:1 8000:1 9278:1 
-0 0.0369002722044019 0.08373497195031473 1669:1 1861:1 2974:1 5229:1 6433:1 8811:1 
-1 1 1 2004:1 
-0 0 1 7076:1 
-0.04758119273082203 0.403650314524665 0.4451967243416533 2727:1 3206:1 3446:1 3745:1 9414:1 9850:1 9890:1 13703:1 
-1 1 0.5665641292055267 477:1 1078:1 10951:1 13703:1 
-1 0 1 13703:1 
-0.5034006793266776 0.7866097897813512 1 319:1 2440:1 11918:1 13703:1 
-0.2517255645410537 0.3488024813284173 0.3835064781195082 631:1 2552:1 3773:1 4503:1 6881:1 12103:1 
-1 0 0.1772724864082998 3446:1 6338:1 12251:1 13028:1 13703:1 
-0.3705422755564075 0.6091761505781346 0.6373571117353833 1629:1 4721:1 
-0 0 0.008348989678533135 7368:1 7938:1 9102:1 13827:1 
-0 0 1 7076:1 
-0 0.1459821704195056 0.6895805025061067 531:1 3807:1 6592:1 13703:1 
-0.3504614227188522 0.1712437809291113 0.3812804770650658 140:1 159:1 5940:1 9355:1 13742:1 
-0.2296586909767106 0.07582400469643995 0.08876562927776527 3502:1 3697:1 11828:1 12316:1 
-0.1455851408553847 0 0 3549:1 4394:1 5362:1 7060:1 8637:1 10788:1 
-0 0 0.308910044500489 7076:1 8415:1 
-0.6251657130610268 0.3509843586562916 0.08321365689749333 834:1 914:1 3121:1 5396:1 10252:1 11409:1 11977:1 13827:1 
-0.3672582953549073 1 1 7387:1 12328:1 
-0 0.5764387949517523 0.2219341581256898 1139:1 2003:1 7647:1 10958:1 13613:1 14602:1 
-0.2036500703102063 0.9363945782096795 0.465504928534737 1810:1 3352:1 11118:1 13790:1 
-1 0.4727490782034773 1 226:1 7076:1 
-0 0 0.1289056009715016 890:1 1248:1 3480:1 6681:1 7076:1 8093:1 8303:1 8310:1 8555:1 9140:1 10291:1 10527:1 12158:1 14512:1 
-0.06022023644101346 0.2696550728678987 0.4056838298068608 7869:1 14357:1 14441:1 
-0.2684646336864335 0.2130382330993558 0.04167610057074354 7238:1 8250:1 10707:1 
-0.06214337502053013 0 0 3156:1 8250:1 13620:1 
-0.2673175429987916 0.4974307111550579 0.184337027327911 239:1 4708:1 4955:1 5872:1 6885:1 9412:1 10381:1 13703:1 
-0.8976487807496156 0 0 1927:1 7644:1 8250:1 14508:1 
-1 0 1 514:1 
-1 1 1 
-0 0.2407915061211574 0.2753901383315918 1952:1 3214:1 4864:1 6882:1 7235:1 8817:1 14531:1 
-0.9715680487539082 1 1 4344:1 
-0 1 0.2140989476020802 4270:1 6705:1 11633:1 12199:1 
-1 0.03232135395030627 1 7738:1 11977:1 
-0.07518014094855995 0.2222036776797978 1 13122:1 
-0.7604564843268051 0 0 293:1 7076:1 7270:1 
-0 0.4697647109904688 0.6641148956779241 1764:1 2878:1 4419:1 6885:1 12949:1 13703:1 
-0 0 0.308740597474509 4157:1 7076:1 
-0 1 0.03409438249476867 514:1 7076:1 8555:1 10745:1 11368:1 11813:1 
-0 0 0.05311730517432205 189:1 2023:1 2403:1 7076:1 
-0 0 0.1098678265412266 8873:1 13703:1 
-0 0.2819588226840288 0.0802419953285587 464:1 1893:1 5842:1 6670:1 7076:1 9346:1 
-0 0.2771807738520979 0.1998981032267133 2089:1 5358:1 7076:1 10313:1 14546:1 
-0.3571447320668755 0.5465468124527237 0.117855737489575 998:1 1357:1 1552:1 2278:1 3502:1 3765:1 4654:1 5097:1 5285:1 11245:1 12176:1 13703:1 
-0.9382450753076718 1 1 3912:1 
-0 0 0.682241682130994 140:1 2995:1 4424:1 4428:1 5668:1 6304:1 7076:1 14370:1 
-0 0 1 7076:1 12802:1 
-0.3683110498151677 0 0 768:1 4711:1 5184:1 6873:1 7076:1 8555:1 8839:1 9182:1 9518:1 12531:1 12736:1 
-0 0 0.3360256148435414 514:1 1675:1 7076:1 12066:1 12189:1 13905:1 
-0.3218131653596585 0.7536510957980249 0 293:1 4394:1 6788:1 6885:1 7076:1 8193:1 8731:1 12246:1 
-0.2111728031348201 0 0.2180434562794982 150:1 2596:1 7265:1 8104:1 11554:1 13181:1 
-0 0 0.6437438759614248 1503:1 5819:1 8146:1 13444:1 
-0.1567077414694525 0 1 13703:1 
-0 0.460144539348825 0.6263723198395336 477:1 1833:1 7869:1 10710:1 13703:1 14170:1 
-0 0 1 834:1 3446:1 6956:1 10458:1 
-0.4719948187948623 0 0.5599442736782519 4394:1 5362:1 10613:1 12115:1 12359:1 
-0 0.5242721816649478 0.4261092626364707 2910:1 4092:1 7235:1 
-0 0.09854384024607397 0.5194713542920233 5210:1 7076:1 13641:1 
-0 0.03025213825789077 0.08134662836831209 92:1 800:1 845:1 1419:1 2440:1 2862:1 3176:1 8025:1 9143:1 12218:1 13983:1 
-0.2078565347025395 1 0.3316052931866602 864:1 2365:1 2829:1 5406:1 5430:1 5695:1 6423:1 
-0.3185969560104738 0 0.5048809629427633 37:1 5420:1 5694:1 13233:1 
-0.04500653051273392 0.05248017239811874 0.9555343989469068 357:1 2187:1 5437:1 13154:1 13326:1 13703:1 
-0.1847756813432662 0 0 2606:1 5414:1 6507:1 7884:1 10502:1 12416:1 13703:1 
-0.3895860869117629 0 0 834:1 3792:1 5359:1 5763:1 7234:1 7737:1 
-0.16381990823395 0.681949258007963 0 65:1 4344:1 5434:1 7076:1 11473:1 14187:1 
-0.09972144614213321 0.3243895394582612 0.0002250774625527664 372:1 1934:1 4188:1 5235:1 5628:1 7706:1 9713:1 10873:1 
-1 1 1 
-0.4861256465882965 0 0 1980:1 4612:1 4817:1 5367:1 8952:1 9560:1 11226:1 
-0 0.2262135258755641 1 7884:1 12579:1 
-1 1 1 
-0.6506034730586338 0 0.6408846187745909 7076:1 9350:1 11974:1 
-1 1 0.7232602208408787 4760:1 7226:1 13047:1 13827:1 
-0 0.5471591774649323 0.5152034725947193 768:1 856:1 1727:1 12056:1 
-0 0.3001915540587252 0.1769609927493979 834:1 2878:1 3446:1 3588:1 5427:1 6478:1 8576:1 9531:1 11674:1 12833:1 
-0 0 0.7780635260556279 834:1 896:1 1503:1 
-1 0.962872497323782 1 1784:1 13827:1 
-0.3075716255829243 1 1 468:1 7938:1 9299:1 13827:1 
-0.7102202777068904 0.1648716344249852 0.1355778716831127 1357:1 7217:1 7868:1 8482:1 13648:1 
-1 1 1 1979:1 8031:1 
-0.03580862107644014 0 0 531:1 2383:1 4519:1 6305:1 7822:1 10123:1 12882:1 13307:1 
-0.04417903570691559 0.113414533378926 0 477:1 1175:1 1955:1 3422:1 8096:1 9978:1 10382:1 10710:1 13703:1 
-0.02303046519736971 0.07598596559690986 0 834:1 923:1 2589:1 5754:1 7158:1 9213:1 10459:1 12166:1 14187:1 
-0.06467421285052437 0 0.2680302193150654 2770:1 4329:1 4394:1 4548:1 9636:1 13703:1 
-0 0.7502912613433488 1 834:1 3446:1 7235:1 10288:1 10764:1 10785:1 13851:1 
-0.01076735664975534 0.3686514235139742 1 3446:1 5495:1 6243:1 7165:1 13827:1 13829:1 14531:1 
-0 1 1 7076:1 11918:1 
-0 1 1 7076:1 11918:1 
-0.383074493762506 1 1 4197:1 10258:1 13827:1 
-0 1 1 1152:1 6433:1 7235:1 10234:1 10288:1 
-1 1 1 6433:1 7235:1 
-0.8771561293701713 0 1 7235:1 10123:1 10288:1 
-0.3360026452536468 1 1 5799:1 7299:1 12176:1 
-0 0.3803332498595892 0.6472188941009547 266:1 1795:1 5763:1 10258:1 10596:1 13827:1 
-0 0.9976402969908611 1 266:1 1795:1 5763:1 10258:1 10596:1 13827:1 
-0 1 1 6433:1 10258:1 13827:1 
-0.420262475147183 1 1 3446:1 5495:1 6243:1 7165:1 13827:1 13829:1 14531:1 
-0 1 0.9134280657733438 1710:1 7291:1 13703:1 
-0 0 1 8899:1 13703:1 
-0 0.1898522055763905 0.1543678263180895 1898:1 7076:1 9512:1 
-0 1 1 3416:1 4858:1 12802:1 13827:1 
-0.2430393690045441 0.06080535288912558 0.2378786849808857 271:1 3848:1 5819:1 9206:1 11918:1 12199:1 12550:1 13408:1 
-0.3412505952193723 1 1 10352:1 
-0 0.856337399428284 1 1979:1 10352:1 
-0 1 1 11384:1 
-0.3608093217295003 0.8843408166315199 0.5284665986722012 1475:1 9189:1 9796:1 11977:1 13827:1 
-0.02906766055128467 0.1133909124769417 0.1473895681510723 4281:1 7935:1 8057:1 8113:1 10288:1 12830:1 12981:1 13892:1 13915:1 
-0 0.6430638240843898 1 315:1 477:1 1199:1 3774:1 11473:1 13827:1 13965:1 
-0.02293017407776555 1 0.8122449323459199 5374:1 6139:1 7296:1 10258:1 13827:1 13829:1 
-0.4159405550943694 0 1 1421:1 11977:1 
-0 1 0 872:1 1357:1 1590:1 7296:1 8396:1 9965:1 10699:1 12383:1 13827:1 
-0 0 1 7378:1 10381:1 11410:1 13703:1 
-0 0.1669205534419249 1 1153:1 5719:1 7235:1 10234:1 10288:1 12019:1 
-1 1 1 477:1 8005:1 13827:1 
-0 0.4319085977861606 1 280:1 345:1 9062:1 10234:1 11977:1 13827:1 
-0.3232406272905714 0 1 280:1 345:1 6997:1 11977:1 13827:1 
-0.3280686024793373 1 1 3114:1 13703:1 
-1 1 1 
-0 1 0 9148:1 13703:1 
-1 0 0 873:1 1999:1 2290:1 7076:1 
-0.3294630295454793 0 0 3384:1 6788:1 7076:1 11368:1 12350:1 14533:1 
-0.3548229894475637 1 1 3549:1 5054:1 7442:1 13827:1 
-0 0 1 834:1 3446:1 
-0 0.3669499406458314 0 8952:1 9997:1 10753:1 11367:1 13094:1 13703:1 
-0 0.6840309328699438 0 8952:1 9997:1 10753:1 11367:1 13094:1 13703:1 
-1 1 1 8031:1 
-0 0 1 280:1 345:1 6997:1 11272:1 11977:1 13827:1 
-0 0 1 280:1 345:1 6997:1 11272:1 11977:1 13827:1 
-0 0 1 7076:1 
-0 1 1 3912:1 5233:1 6122:1 7142:1 9206:1 12199:1 
-0.2097178469679447 0.2025981837699614 0 5187:1 7076:1 8827:1 13936:1 
-0 0 0.620309194220516 9875:1 10745:1 
-0 1 1 293:1 6122:1 
-0 0 0.3089295678869449 7076:1 10611:1 
-0.1072862801313941 0 1 8877:1 13370:1 13567:1 13703:1 
-0 0 0.3652601026692049 140:1 159:1 2514:1 10500:1 11337:1 12222:1 
-0.3996618625537635 0.3538013755337466 0.2912619502582419 855:1 1798:1 2512:1 8031:1 13703:1 
-0 0 1 7076:1 
-0 0 0.3087614311779291 7076:1 14335:1 
-0 1 0 1421:1 1669:1 10258:1 13827:1 
-0 0 0.9668806823105273 834:1 3446:1 6228:1 10689:1 11850:1 12996:1 
-0 0 0.4418132829379767 3888:1 5086:1 7076:1 11410:1 
-0 0.2587273794840692 0.5616242898845478 834:1 2365:1 11297:1 11763:1 12010:1 12282:1 14492:1 
-0 1 1 7442:1 11125:1 
-0 0.6232479807282633 0.1410513598454773 3745:1 7442:1 8852:1 10699:1 13703:1 
-1 0.5910112629791945 1 3502:1 8837:1 
-0 0 0.3414325093569353 1387:1 3185:1 10258:1 11473:1 11977:1 13399:1 13827:1 
-1 0.3600137840177283 0.2022606920465536 839:1 1925:1 5515:1 9649:1 
-0 0.391875452191468 1 834:1 3799:1 
-0.2376015409927431 0.02346190164280254 0.3281854742705033 2114:1 5211:1 7076:1 13571:1 
-0.3921149375942863 0.02435575282932795 0.2328563699639727 834:1 1727:1 14586:1 
-0 0.1302876904013495 0.6949078915850725 834:1 1800:1 4344:1 4684:1 5434:1 7235:1 7497:1 
-1 1 1 1625:1 7235:1 
-0 0.1840789984259578 0 834:1 3446:1 10689:1 11850:1 12573:1 12996:1 
-0 0.2490772167999724 0 477:1 834:1 2396:1 3446:1 3625:1 9985:1 10689:1 11850:1 12996:1 
-0 1 0.5052769635608589 913:1 3446:1 10165:1 10288:1 10689:1 11850:1 12304:1 12674:1 12836:1 12996:1 13851:1 
-0 0.5610549364226441 0 834:1 2396:1 3446:1 9985:1 
-0 0 0.1685147058018866 834:1 2396:1 3446:1 9985:1 
-0.2447479045813256 0.2183970206442833 0.9183694260346416 834:1 2934:1 3446:1 10533:1 10762:1 12474:1 
-0.1804194418353326 0 0.08399318297574598 834:1 844:1 2164:1 3104:1 3446:1 8492:1 9892:1 10533:1 12187:1 12282:1 14434:1 
-0 1 0.5209406347783636 834:1 872:1 3246:1 3446:1 8462:1 9297:1 9713:1 10533:1 14266:1 
-0.3961629997651463 1 0 477:1 834:1 3446:1 8248:1 8492:1 10689:1 11850:1 12114:1 12996:1 
-0 0 1 834:1 3446:1 10689:1 11850:1 12996:1 
-0.5214082261785554 1 1 5541:1 10867:1 13827:1 
-0.0758124993912654 0.4021199636474861 0.6296421063317683 477:1 1597:1 1662:1 3300:1 4472:1 5790:1 11918:1 12550:1 13214:1 
-0.01560279287272855 1 1 4428:1 7444:1 12922:1 13562:1 13827:1 
-0 1 1 4428:1 7444:1 12922:1 13562:1 13827:1 
-0.7951473977664413 1 1 4428:1 7444:1 12922:1 13562:1 13827:1 
-0.002631729226831366 0.5119951288495391 0.5447896051188363 636:1 858:1 1293:1 3969:1 5672:1 11245:1 13703:1 14187:1 
-0.07578510760685429 1 1 733:1 1316:1 2023:1 8396:1 13827:1 13829:1 
-0 0 0.1731677984442945 1590:1 5229:1 6959:1 13703:1 
-0.8774640830768445 1 1 5310:1 5668:1 11977:1 13827:1 13829:1 
-0.2230899513056014 0 0.3114500852689507 2523:1 6308:1 8396:1 10429:1 11977:1 12276:1 
-1 1 1 
-0 0.136704095383129 1 8180:1 11247:1 13703:1 14261:1 
-0.5341237249278729 0.5862217028771304 1 1088:1 6852:1 6997:1 11977:1 12865:1 13827:1 
-0 0 1 280:1 345:1 6997:1 11272:1 11977:1 13827:1 
-0.3830273371436181 0 1 1153:1 5501:1 7235:1 9414:1 10288:1 12019:1 12670:1 
-0.3848227572718527 1 1 468:1 3374:1 7938:1 9299:1 13827:1 
-1 0.2505428290086013 0.815513807495593 1880:1 5560:1 9182:1 10699:1 11546:1 11977:1 13827:1 
-0.3741780761525667 1 0.9026175892479056 2195:1 3774:1 4693:1 4743:1 11473:1 12028:1 12199:1 13827:1 14599:1 
-0 1 0 1979:1 2195:1 4693:1 4743:1 12028:1 12199:1 13827:1 14599:1 
-0 0 1 468:1 4891:1 6323:1 7938:1 9732:1 11607:1 13827:1 
-0 1 1 468:1 7938:1 11607:1 13827:1 
-0 0.2620393911569084 1 468:1 6323:1 7938:1 11607:1 13827:1 
-0.007393913870561277 1 1 468:1 1979:1 4275:1 11607:1 13827:1 
-0.3332660509684381 1 0.1584984313692647 2583:1 5731:1 13827:1 14599:1 
-0 0.1344643982550207 0 136:1 2940:1 3634:1 11745:1 13827:1 
-0.4437447881974341 0.7955396757954073 1 6433:1 6506:1 13277:1 13607:1 13827:1 
-0 0.7925508992870025 0 1282:1 5645:1 6870:1 7368:1 8145:1 11977:1 13827:1 14099:1 
-0 1 0 1282:1 6870:1 11977:1 13827:1 
-0.1850947987888742 1 0.5099228946718475 1554:1 1790:1 10699:1 12651:1 13827:1 
-0 1 1 468:1 1554:1 1790:1 13827:1 
-0 1 0.8609662759905214 2759:1 3246:1 3625:1 6386:1 8952:1 11245:1 13827:1 13829:1 
-0.4929155725380115 1 1 10258:1 13827:1 
-0.06477358886243771 0.523726757882486 0.6615199415242896 4297:1 6195:1 10258:1 13827:1 14249:1 
-0 1 1 1189:1 7235:1 12802:1 13827:1 
-1 1 1 4116:1 4864:1 8396:1 13827:1 
-0 1 0.8232479771586735 5457:1 6122:1 8396:1 13003:1 13827:1 
-0.05433337458998519 0 0.5139262556577234 834:1 1287:1 1553:1 5367:1 7867:1 8011:1 8877:1 9037:1 12479:1 13703:1 13827:1 
-0.01837750918697383 1 0.3020810463431508 913:1 4388:1 6936:1 11500:1 13827:1 14599:1 
-0.0166908198375183 1 0.7690530259146353 913:1 4388:1 6936:1 11500:1 13827:1 14599:1 
-1 1 0.8308871014785043 261:1 308:1 468:1 3765:1 4909:1 13827:1 
-0.1046203074587755 1 0.9620874522510223 2365:1 5731:1 7297:1 13437:1 13827:1 14599:1 
-0 0.3760766967760328 0.4605348125842622 913:1 4388:1 7571:1 8304:1 11500:1 13827:1 14599:1 
-0 0 1 1503:1 9885:1 
-0.506621995164242 0 0.493946194628013 1503:1 2500:1 3964:1 9885:1 12208:1 
-1 1 0.2929718164249531 468:1 6423:1 11263:1 13827:1 
-0 0.5295539539738072 0.3842688310187758 5103:1 5256:1 9661:1 11758:1 13703:1 
-0.2317705096075282 1 1 468:1 5529:1 13827:1 13948:1 
-0.5887037883754042 0.3201016130359791 1 9537:1 13703:1 
-0.1354810612199123 0 0 477:1 834:1 2062:1 3686:1 5106:1 7300:1 9350:1 11407:1 13827:1 
-0 0.02421081433665949 0.6311858907346418 834:1 2127:1 3805:1 4183:1 4818:1 5106:1 13980:1 
-0 0.2611228133147162 0.2268937920722911 2975:1 7581:1 11918:1 12078:1 13703:1 
-1 1 1 
-0.2470610057716186 0.7449028829669783 0 6977:1 8731:1 13703:1 13948:1 
-1 1 1 3502:1 13827:1 
-0 1 1 5264:1 6643:1 
-0 0 1 1153:1 2292:1 7235:1 8377:1 10288:1 12019:1 13198:1 
-0.3925280954366659 0.3178487690434189 1 3792:1 6691:1 8396:1 8637:1 9299:1 9839:1 10878:1 13827:1 14531:1 
-0.09469201210599136 0 0 4154:1 7076:1 7730:1 8316:1 8588:1 
